{"learner":{"attributes":{"best_iteration":"19","best_score":"0.5238611713665944"},"feature_names":[],"feature_types":[],"gradient_booster":{"model":{"gbtree_model_param":{"num_parallel_tree":"1","num_trees":"150"},"iteration_indptr":[0,3,6,9,12,15,18,21,24,27,30,33,36,39,42,45,48,51,54,57,60,63,66,69,72,75,78,81,84,87,90,93,96,99,102,105,108,111,114,117,120,123,126,129,132,135,138,141,144,147,150],"tree_info":[0,1,2,0,1,2,0,1,2,0,1,2,0,1,2,0,1,2,0,1,2,0,1,2,0,1,2,0,1,2,0,1,2,0,1,2,0,1,2,0,1,2,0,1,2,0,1,2,0,1,2,0,1,2,0,1,2,0,1,2,0,1,2,0,1,2,0,1,2,0,1,2,0,1,2,0,1,2,0,1,2,0,1,2,0,1,2,0,1,2,0,1,2,0,1,2,0,1,2,0,1,2,0,1,2,0,1,2,0,1,2,0,1,2,0,1,2,0,1,2,0,1,2,0,1,2,0,1,2,0,1,2,0,1,2,0,1,2,0,1,2,0,1,2,0,1,2,0,1,2],"trees":[{"base_weights":[-1.5103874E-1,-1.6287935E-1,6.308875E-3,2.37931E-1,-1.6478199E-1,1.20560706E-1,-1.0321822E-1,-6.568052E-2,7.336633E-1,-1.9677544E-1,-1.4390337E-1,7.050078E-2,5.16E-1,-2.84801E-1,1.3225014E-2,-5.5411767E-2,3.7741932E-1,1.1608696E-1,-1.2439028E-2,-2.179021E-1,-3.8425427E-2,5.4988354E-2,-1.5196352E-1,4.9274608E-1,1.9657029E-2,-3.0000005E-2,6.502538E-1,3E-2,-3.2535216E-1,1.7868848E-1,-1.0637455E-1,8.675676E-2,3.2307655E-2,-1.5726557E-1,-2.5673157E-1,-1.3162346E-1,1.3160217E-1,-4.0588242E-1,1.1671014E-1,-1.3606599E-1,-2.2807887E-1,-3.0000005E-2,6.490909E-1,-1.7521669E-1,1.2591545E-1,2.381443E-1,9.550459E-1,-3.573706E-1,3.8108107E-2,-6.677745E-2,4.634241E-1,9.026505E-3,-4.370559E-1,-3.0000005E-2,3.8108107E-2,-1.2722664E-2,-3.580646E-2,-3.8514197E-2,-2.3280153E-2,5.4428587E-4,-3.0740747E-2,7.353982E-2,4.382018E-3,-2.8767164E-3,-6.64045E-2,1.6629523E-2,-5.444445E-2,-2.1277538E-2,-1.1276097E-2,5.086956E-2,-2.372441E-2,9.804124E-2,1.441558E-2,2.5752207E-2,-2.771671E-2,1.1487805E-1,8.334943E-3,-2.2653066E-2,6.1578948E-2,1.7999997E-2,1.3027398E-1,-4.3821998E-2,-9.047624E-3,4.1681413E-2,-3.4568533E-2,-2.1692311E-2,6.671642E-2,-3.7692312E-2,1.0962797E-2,-5.906833E-2,1.7999997E-2],"categories":[],"categories_nodes":[],"categories_segments":[],"categories_sizes":[],"default_left":[0,0,0,0,0,0,0,0,0,0,0,0,0,0,0,0,0,0,0,0,0,0,0,0,0,0,0,0,0,0,0,0,0,0,0,0,0,0,0,0,0,0,0,0,0,0,0,0,0,0,0,0,0,0,0,0,0,0,0,0,0,0,0,0,0,0,0,0,0,0,0,0,0,0,0,0,0,0,0,0,0,0,0,0,0,0,0,0,0,0,0],"id":0,"left_children":[1,3,5,7,9,11,13,15,17,19,21,23,25,27,29,-1,31,-1,-1,33,35,37,39,41,43,-1,45,-1,47,49,51,-1,53,55,57,59,61,63,65,67,69,-1,71,73,75,77,79,81,-1,83,85,87,89,-1,-1,-1,-1,-1,-1,-1,-1,-1,-1,-1,-1,-1,-1,-1,-1,-1,-1,-1,-1,-1,-1,-1,-1,-1,-1,-1,-1,-1,-1,-1,-1,-1,-1,-1,-1,-1,-1],"loss_changes":[1.2243729E1,4.6868744E0,5.7662954E0,4.479777E0,3.9963226E0,4.3765907E0,4.9950857E0,4.290812E0,4.361732E0,7.9774933E0,5.9211884E0,4.2733326E0,2.9688787E0,2.2844968E0,2.8693104E0,0E0,1.6299275E0,0E0,0E0,4.891159E0,4.5123734E0,4.105161E0,4.2157135E0,2.887498E0,3.7742975E0,0E0,2.4026556E0,0E0,2.09663E0,4.3340774E0,3.2395496E0,0E0,9.5948863E-1,4.9009075E0,3.7971802E0,4.4678545E0,5.21954E0,1.5666862E0,4.238072E0,5.184437E0,4.2059383E0,0E0,2.8133016E0,2.9017873E0,4.9331865E0,2.0697293E0,2.8809185E0,1.7128611E0,0E0,4.6478763E0,4.1479473E0,2.4520705E0,2.222385E0,0E0,0E0,0E0,0E0,0E0,0E0,0E0,0E0,0E0,0E0,0E0,0E0,0E0,0E0,0E0,0E0,0E0,0E0,0E0,0E0,0E0,0E0,0E0,0E0,0E0,0E0,0E0,0E0,0E0,0E0,0E0,0E0,0E0,0E0,0E0,0E0,0E0,0E0],"parents":[2147483647,0,0,1,1,2,2,3,3,4,4,5,5,6,6,7,7,8,8,9,9,10,10,11,11,12,12,13,13,14,14,16,16,19,19,20,20,21,21,22,22,23,23,24,24,26,26,28,28,29,29,30,30,32,32,33,33,34,34,35,35,36,36,37,37,38,38,39,39,40,40,42,42,43,43,44,44,45,45,46,46,47,47,49,49,50,50,51,51,52,52],"right_children":[2,4,6,8,10,12,14,16,18,20,22,24,26,28,30,-1,32,-1,-1,34,36,38,40,42,44,-1,46,-1,48,50,52,-1,54,56,58,60,62,64,66,68,70,-1,72,74,76,78,80,82,-1,84,86,88,90,-1,-1,-1,-1,-1,-1,-1,-1,-1,-1,-1,-1,-1,-1,-1,-1,-1,-1,-1,-1,-1,-1,-1,-1,-1,-1,-1,-1,-1,-1,-1,-1,-1,-1,-1,-1,-1,-1],"split_conditions":[1.5641216E0,-2.8367875E0,1.3248899E0,2.6297452E0,-3.1626922E-1,2.5245018E0,3.37401E-2,1.627165E-3,-1.3264512E0,1.9005893E0,-2.3565032E0,-1.5463127E0,-1.7967765E0,-1.9256606E0,8.0290824E-1,-5.5411767E-2,4.2124903E-1,1.1608696E-1,-1.2439028E-2,-6.093118E-1,6.7931485E-1,-9.781163E-1,5.462329E-1,-9.4259995E-1,9.972629E-1,-3.0000005E-2,-3.0567202E-1,3E-2,3.053629E0,1.4109397E0,9.544409E-1,8.675676E-2,-1.426631E-1,6.991999E-1,-1.5201621E0,-2.968297E-1,-1.4312729E0,-3.3813792E-1,2.9494148E-1,-8.482902E-1,-2.6514473E0,-3.0000005E-2,2.883906E-1,6.3379955E-1,5.3657925E-1,-1.3669626E0,-1.6400332E0,9.3716305E-1,3.8108107E-2,-7.162039E-1,1.4364958E0,1.0848876E0,4.0529063E-1,-3.0000005E-2,3.8108107E-2,-1.2722664E-2,-3.580646E-2,-3.8514197E-2,-2.3280153E-2,5.4428587E-4,-3.0740747E-2,7.353982E-2,4.382018E-3,-2.8767164E-3,-6.64045E-2,1.6629523E-2,-5.444445E-2,-2.1277538E-2,-1.1276097E-2,5.086956E-2,-2.372441E-2,9.804124E-2,1.441558E-2,2.5752207E-2,-2.771671E-2,1.1487805E-1,8.334943E-3,-2.2653066E-2,6.1578948E-2,1.7999997E-2,1.3027398E-1,-4.3821998E-2,-9.047624E-3,4.1681413E-2,-3.4568533E-2,-2.1692311E-2,6.671642E-2,-3.7692312E-2,1.0962797E-2,-5.906833E-2,1.7999997E-2],"split_indices":[22,0,3,5,0,22,5,20,1,16,10,28,34,28,0,0,31,0,0,28,5,29,30,36,7,0,26,0,7,1,29,0,26,3,3,12,41,31,24,18,12,0,15,1,17,13,9,31,0,39,19,0,41,0,0,0,0,0,0,0,0,0,0,0,0,0,0,0,0,0,0,0,0,0,0,0,0,0,0,0,0,0,0,0,0,0,0,0,0,0,0],"split_type":[0,0,0,0,0,0,0,0,0,0,0,0,0,0,0,0,0,0,0,0,0,0,0,0,0,0,0,0,0,0,0,0,0,0,0,0,0,0,0,0,0,0,0,0,0,0,0,0,0,0,0,0,0,0,0,0,0,0,0,0,0,0,0,0,0,0,0,0,0,0,0,0,0,0,0,0,0,0,0,0,0,0,0,0,0,0,0,0,0,0,0],"sum_hessian":[6.5617773E3,6.103111E3,4.5866663E2,2.7999998E1,6.075111E3,2.2488887E2,2.3377777E2,1.7777777E1,1.0222221E1,2.3937776E3,3.681333E3,2.0088887E2,2.3999998E1,9.111111E1,1.4266666E2,8.444444E0,9.333333E0,6.666666E0,3.5555553E0,2.111111E3,2.8266666E2,1.4266666E2,3.5386665E3,2.0444443E1,1.8044443E2,3.111111E0,2.0888887E1,5.333333E0,8.577777E1,5.9999996E1,8.2666664E1,3.111111E0,6.222222E0,8.271111E2,1.2839999E3,1.831111E2,9.955555E1,1.5999999E1,1.2666666E2,2.9306665E3,6.0799994E2,3.111111E0,1.7333332E1,6.3111107E1,1.1733333E2,9.777777E0,1.1111111E1,8.2666664E1,3.111111E0,3.2444443E1,2.7555553E1,6.1777775E1,2.0888887E1,3.111111E0,3.111111E0,7.213333E2,1.0577777E2,1.9866666E2,1.0853333E3,1.0311111E2,7.999999E1,1.1555555E1,8.799999E1,7.1111107E0,8.888888E0,1.1866666E2,7.9999995E0,6.7999994E2,2.2506665E3,6.666666E0,6.013333E2,9.777777E0,7.5555553E0,1.1555555E1,5.1555553E1,3.5555553E0,1.1377777E2,4.444444E0,5.333333E0,3.9999998E0,7.1111107E0,6.2666664E1,1.9999998E1,1.1555555E1,2.0888887E1,6.222222E0,2.1333332E1,1.1999999E1,4.9777775E1,1.6888887E1,3.9999998E0],"tree_param":{"num_deleted":"0","num_feature":"47","num_nodes":"91","size_leaf_vector":"1"}},{"base_weights":[2.901196E-1,2.4482124E-1,3.4205064E-1,2.512496E-1,-8.11994E-2,4.8959598E-1,3.0579183E-1,2.1098725E-1,3.0103827E-1,4.835294E-1,-1.7024034E-1,5.812552E-1,3.0623287E-1,5.4568272E-2,3.198999E-1,2.6828167E-1,1.125766E-1,4.0673646E-1,2.3043996E-1,-4.285718E-3,9.8E-2,4.5789473E-2,-2.415822E-1,9E-1,5.2934957E-1,5.465753E-1,1.6943264E-1,1.2817928E-1,-6.798165E-2,3.4327066E-1,1.9220895E-1,4.316285E-1,2.2584032E-1,-7.754574E-2,1.5439567E-1,3.397415E-1,6.422918E-1,4.9691117E-1,2.0270695E-1,2.485714E-1,-3.6801013E-1,-1.2439028E-2,9.761488E-1,3.7516776E-1,6.4175516E-1,-3.422823E-2,7.061895E-1,1.4819716E-2,4.2653057E-1,7.69452E-2,9.688525E-2,3.5191205E-1,-4.3511495E-2,-6.837214E-2,2.5563136E-1,-3.167706E-3,4.6610493E-2,6.0935553E-2,2.0294437E-2,2.1051342E-2,-2.3511354E-2,1.057849E-2,4.6519257E-2,4.7341827E-2,2.0097898E-2,-2.4705923E-3,6.878628E-2,-1.6611574E-2,6.1218042E-2,3.2612566E-2,1.5736375E-2,-2.2653066E-2,5.8615383E-2,-6.8461545E-2,-2.2525957E-2,1.0258742E-1,1.3783782E-2,8.316456E-2,2.7412398E-2,6.894406E-3,6.9401346E-2,-3.774194E-2,4.4769228E-2,4.6791807E-2,9.746781E-2,-9.395871E-3,5.5116277E-2,6.404844E-2,1.3043437E-3,2.9160837E-2,-7.101454E-3,4.5234587E-2,3.283706E-2,-2.3793109E-2,3.1276595E-2,4.7518246E-2,-2.1295942E-2,3.1207874E-2,-1.0554022E-2],"categories":[],"categories_nodes":[],"categories_segments":[],"categories_sizes":[],"default_left":[0,0,0,0,0,0,0,0,0,0,0,0,0,0,0,0,0,0,0,0,0,0,0,0,0,0,0,0,0,0,0,0,0,0,0,0,0,0,0,0,0,0,0,0,0,0,0,0,0,0,0,0,0,0,0,0,0,0,0,0,0,0,0,0,0,0,0,0,0,0,0,0,0,0,0,0,0,0,0,0,0,0,0,0,0,0,0,0,0,0,0,0,0,0,0,0,0,0,0],"id":1,"left_children":[1,3,5,7,9,11,13,15,17,19,21,23,25,27,29,31,33,35,37,-1,-1,-1,39,41,43,45,47,49,-1,51,53,55,57,59,61,63,65,67,69,71,73,-1,75,77,79,81,83,85,87,89,-1,91,93,95,97,-1,-1,-1,-1,-1,-1,-1,-1,-1,-1,-1,-1,-1,-1,-1,-1,-1,-1,-1,-1,-1,-1,-1,-1,-1,-1,-1,-1,-1,-1,-1,-1,-1,-1,-1,-1,-1,-1,-1,-1,-1,-1,-1,-1],"loss_changes":[1.5349121E1,7.418518E0,1.6165558E1,6.80986E0,3.4982338E0,9.856613E0,8.675461E0,1.0725449E1,1.134166E1,2.603882E0,2.782706E0,6.000366E0,6.517517E0,7.1977696E0,6.8386993E0,8.215286E0,5.639063E0,9.392418E0,6.6782417E0,0E0,0E0,0E0,3.4979498E0,4.444927E0,5.6675034E0,6.858795E0,5.1657133E0,5.0516186E0,0E0,6.627228E0,6.0464087E0,4.0142136E0,8.241394E0,5.8465967E0,8.658054E0,8.767887E0,4.1799774E0,6.744465E0,4.6092186E0,2.0399153E0,1.748424E0,0E0,1.8589134E0,6.5339622E0,5.826088E0,2.900078E0,3.0745735E0,4.9529037E0,4.261183E0,3.7165146E0,0E0,4.327942E0,3.091606E0,5.7073326E0,6.0270367E0,0E0,0E0,0E0,0E0,0E0,0E0,0E0,0E0,0E0,0E0,0E0,0E0,0E0,0E0,0E0,0E0,0E0,0E0,0E0,0E0,0E0,0E0,0E0,0E0,0E0,0E0,0E0,0E0,0E0,0E0,0E0,0E0,0E0,0E0,0E0,0E0,0E0,0E0,0E0,0E0,0E0,0E0,0E0,0E0],"parents":[2147483647,0,0,1,1,2,2,3,3,4,4,5,5,6,6,7,7,8,8,9,9,10,10,11,11,12,12,13,13,14,14,15,15,16,16,17,17,18,18,22,22,23,23,24,24,25,25,26,26,27,27,29,29,30,30,31,31,32,32,33,33,34,34,35,35,36,36,37,37,38,38,39,39,40,40,42,42,43,43,44,44,45,45,46,46,47,47,48,48,49,49,51,51,52,52,53,53,54,54],"right_children":[2,4,6,8,10,12,14,16,18,20,22,24,26,28,30,32,34,36,38,-1,-1,-1,40,42,44,46,48,50,-1,52,54,56,58,60,62,64,66,68,70,72,74,-1,76,78,80,82,84,86,88,90,-1,92,94,96,98,-1,-1,-1,-1,-1,-1,-1,-1,-1,-1,-1,-1,-1,-1,-1,-1,-1,-1,-1,-1,-1,-1,-1,-1,-1,-1,-1,-1,-1,-1,-1,-1,-1,-1,-1,-1,-1,-1,-1,-1,-1,-1,-1,-1],"split_conditions":[-1.1229164E-1,2.3837345E0,-6.481169E-1,-1.672205E-1,-1.2123141E0,-2.2312748E-1,-1.6668626E0,-1.4704E0,-1.2593852E0,8.9385295E-1,-1.759925E0,-1.8220744E0,1.6404297E0,4.4621924E-1,2.2477574E0,-8.304259E-1,-1.0482934E0,1.2506559E0,-1.4020938E0,-4.285718E-3,9.8E-2,4.5789473E-2,-1.9431813E0,-2.141272E0,1.3969963E0,3.583981E-1,3.4370995E-1,-6.8702954E-1,-6.798165E-2,3.0251226E0,-1.3629247E-1,-7.1393037E-1,-2.4551394E0,-2.0890634E-1,8.3169645E-1,-1.2297401E0,-1.1633942E0,-1.4819697E0,-1.8256063E-2,1.4951802E0,-1.6995509E0,-1.2439028E-2,1.8526547E0,-1.1336371E0,-1.4390386E0,8.6421657E-1,-1.8744083E-1,1.7448161E0,-1.2202649E0,-2.0297692E0,9.688525E-2,6.313678E-1,9.7621596E-1,-1.0767723E0,1.6714445E0,-3.167706E-3,4.6610493E-2,6.0935553E-2,2.0294437E-2,2.1051342E-2,-2.3511354E-2,1.057849E-2,4.6519257E-2,4.7341827E-2,2.0097898E-2,-2.4705923E-3,6.878628E-2,-1.6611574E-2,6.1218042E-2,3.2612566E-2,1.5736375E-2,-2.2653066E-2,5.8615383E-2,-6.8461545E-2,-2.2525957E-2,1.0258742E-1,1.3783782E-2,8.316456E-2,2.7412398E-2,6.894406E-3,6.9401346E-2,-3.774194E-2,4.4769228E-2,4.6791807E-2,9.746781E-2,-9.395871E-3,5.5116277E-2,6.404844E-2,1.3043437E-3,2.9160837E-2,-7.101454E-3,4.5234587E-2,3.283706E-2,-2.3793109E-2,3.1276595E-2,4.7518246E-2,-2.1295942E-2,3.1207874E-2,-1.0554022E-2],"split_indices":[13,34,20,34,29,5,27,16,12,3,12,28,12,19,16,29,41,35,22,0,0,0,11,40,35,10,39,18,0,10,3,32,37,19,28,10,33,11,33,33,11,0,38,36,12,39,32,35,20,22,0,35,27,18,29,0,0,0,0,0,0,0,0,0,0,0,0,0,0,0,0,0,0,0,0,0,0,0,0,0,0,0,0,0,0,0,0,0,0,0,0,0,0,0,0,0,0,0,0],"split_type":[0,0,0,0,0,0,0,0,0,0,0,0,0,0,0,0,0,0,0,0,0,0,0,0,0,0,0,0,0,0,0,0,0,0,0,0,0,0,0,0,0,0,0,0,0,0,0,0,0,0,0,0,0,0,0,0,0,0,0,0,0,0,0,0,0,0,0,0,0,0,0,0,0,0,0,0,0,0,0,0,0,0,0,0,0,0,0,0,0,0,0,0,0,0,0,0,0,0,0],"sum_hessian":[6.584444E3,3.5208887E3,3.0635554E3,3.453333E3,6.755555E1,6.013333E2,2.4622222E3,1.9133333E3,1.5399999E3,8.444444E0,5.9111107E1,3.9911108E2,2.0222221E2,1.3155554E2,2.3306665E3,1.2075555E3,7.057777E2,6.1422217E2,9.257777E2,4.444444E0,3.9999998E0,5.333333E0,5.3777775E1,5.333333E1,3.4577777E2,7.199999E1,1.3022221E2,1.20444435E2,1.1111111E1,1.9679999E3,3.6266666E2,2.4666666E2,9.6088885E2,1.2666666E2,5.791111E2,4.8044443E2,1.3377777E2,8.533333E1,8.404444E2,1.0666666E1,4.3111107E1,3.5555553E0,4.9777775E1,1.4799998E2,1.9777777E2,1.5555554E1,5.6444443E1,8.222221E1,4.7999996E1,1.1466666E2,5.7777777E0,1.9253333E3,4.2666664E1,7.0666664E1,2.9199997E2,1.6888887E1,2.2977777E2,5.2444443E1,9.084444E2,4.4444443E1,8.222221E1,5.022222E2,7.6888885E1,2.431111E2,2.3733331E2,8.444444E0,1.2533333E2,1.2444444E1,7.2888885E1,2.2355554E2,6.1688885E2,4.444444E0,6.222222E0,1.1999999E1,3.1111109E1,4.6666664E1,3.111111E0,2.5333332E1,1.2266666E2,1.6888887E1,1.8088889E2,9.333333E0,6.222222E0,3.1555553E1,2.4888887E1,6.8888885E1,1.3333332E1,3.1111109E1,1.6888887E1,4.6666664E1,6.799999E1,3.613333E2,1.5639999E3,2.7999998E1,1.4666666E1,1.4222221E1,5.6444443E1,2.5288887E2,3.9111107E1],"tree_param":{"num_deleted":"0","num_feature":"47","num_nodes":"99","size_leaf_vector":"1"}},{"base_weights":[-1.4962633E-1,-9.341922E-2,-1.7599975E-1,-7.0549E-2,-2.0661189E-1,-1.3918076E-1,-2.0991808E-1,-1.2079687E-1,4.8723407E-2,-2.3001002E-1,2.3664592E-1,-1.4475112E-1,3.180257E-1,-1.1464429E-1,-2.3140846E-1,-1.4466421E-1,4.5684837E-3,-2.3436469E-1,1.1689239E-1,-2.5274768E-1,1.807453E-1,6.092783E-1,-2.7534252E-1,-1.4776313E-1,4.741935E-1,8.7247705E-1,-1.5112786E-1,4.094703E-2,-1.7450845E-1,-3.632295E-1,-2.159552E-1,-1.2256303E-1,-3.0820423E-1,2.7908844E-1,-6.749472E-2,-3.8515502E-1,7.674415E-2,2.5403723E-1,3.05806E-2,-1.9533959E-1,-4.585645E-1,4.8842973E-1,-5.9387762E-2,-5.675679E-3,9E-1,-5.8000006E-2,1.3783782E-2,-2.2783135E-1,-1.273094E-1,9.688525E-2,-3.439025E-2,1.3783782E-2,1.1000001E-1,3E-2,-4.4823533E-1,-2.4691693E-1,1.9228607E-1,-2.0176896E-1,3.1610736E-1,3E-2,-3.8386726E-1,-5.0389063E-2,-2.4341014E-1,-1.1047852E-2,-4.2983614E-2,-3.499505E-2,1.4536078E-2,-6.1578956E-2,4.310769E-2,4.7518246E-2,-1.2576117E-2,-6.0857147E-2,-2.2838201E-2,-5.0869573E-2,2.4522819E-2,1.4961103E-2,6.448505E-2,2.8268037E-2,-3.5208266E-3,-1.0416391E-2,-3.6752917E-2,-4.907693E-2,1.3783782E-2,8.777778E-2,-2.2653066E-2,3.8108107E-2,1.1487805E-1,-8.639009E-3,-2.9115317E-2,-1.1907571E-2,-3.42623E-2,-5.675679E-3,-6.1578956E-2,1.06015E-2,-4.3012053E-2,-7.1149194E-3,5.338658E-2,-2.174628E-2,6.5510206E-2,8.4545456E-2,-2.1111116E-2,-2.343619E-2,-4.847977E-2,-7.5106933E-3,5.2921344E-2,-3.665719E-2,-2.194569E-2],"categories":[],"categories_nodes":[],"categories_segments":[],"categories_sizes":[],"default_left":[0,0,0,0,0,0,0,0,0,0,0,0,0,0,0,0,0,0,0,0,0,0,0,0,0,0,0,0,0,0,0,0,0,0,0,0,0,0,0,0,0,0,0,0,0,0,0,0,0,0,0,0,0,0,0,0,0,0,0,0,0,0,0,0,0,0,0,0,0,0,0,0,0,0,0,0,0,0,0,0,0,0,0,0,0,0,0,0,0,0,0,0,0,0,0,0,0,0,0,0,0,0,0,0,0,0,0],"id":2,"left_children":[1,3,5,7,9,11,13,15,17,19,21,23,25,27,29,31,33,35,37,39,41,43,45,47,49,51,53,55,57,59,61,63,65,67,69,71,73,75,77,79,81,83,-1,-1,85,-1,-1,87,89,-1,-1,-1,-1,-1,91,93,95,97,99,-1,101,103,105,-1,-1,-1,-1,-1,-1,-1,-1,-1,-1,-1,-1,-1,-1,-1,-1,-1,-1,-1,-1,-1,-1,-1,-1,-1,-1,-1,-1,-1,-1,-1,-1,-1,-1,-1,-1,-1,-1,-1,-1,-1,-1,-1,-1],"loss_changes":[9.674576E0,5.386297E0,5.5052795E0,1.0481855E1,3.696435E0,5.485935E0,4.6846695E0,3.6946678E0,1.0009778E1,3.1754303E0,3.614058E0,3.985752E0,6.938281E0,4.0204954E0,3.7125702E0,3.656063E0,3.9372056E0,4.7776823E0,4.915673E0,3.5958138E0,4.5431495E0,2.2223153E0,1.1451766E0,3.3886452E0,4.577363E0,1.7489328E0,2.1300108E0,5.255301E0,4.208825E0,2.8078308E0,7.6601334E0,3.2886715E0,2.3792505E0,5.8838854E0,4.9750834E0,2.1629543E0,3.3972683E0,6.3946705E0,4.3192506E0,3.844655E0,1.41115E0,4.0064764E0,0E0,0E0,3.9897776E-1,0E0,0E0,3.759449E0,2.896305E0,0E0,0E0,0E0,0E0,0E0,5.172925E-1,2.7577412E0,7.2129993E0,4.068722E0,4.86227E0,0E0,2.6932335E0,3.4725025E0,4.1461563E0,0E0,0E0,0E0,0E0,0E0,0E0,0E0,0E0,0E0,0E0,0E0,0E0,0E0,0E0,0E0,0E0,0E0,0E0,0E0,0E0,0E0,0E0,0E0,0E0,0E0,0E0,0E0,0E0,0E0,0E0,0E0,0E0,0E0,0E0,0E0,0E0,0E0,0E0,0E0,0E0,0E0,0E0,0E0,0E0],"parents":[2147483647,0,0,1,1,2,2,3,3,4,4,5,5,6,6,7,7,8,8,9,9,10,10,11,11,12,12,13,13,14,14,15,15,16,16,17,17,18,18,19,19,20,20,21,21,22,22,23,23,24,24,25,25,26,26,27,27,28,28,29,29,30,30,31,31,32,32,33,33,34,34,35,35,36,36,37,37,38,38,39,39,40,40,41,41,44,44,47,47,48,48,54,54,55,55,56,56,57,57,58,58,60,60,61,61,62,62],"right_children":[2,4,6,8,10,12,14,16,18,20,22,24,26,28,30,32,34,36,38,40,42,44,46,48,50,52,54,56,58,60,62,64,66,68,70,72,74,76,78,80,82,84,-1,-1,86,-1,-1,88,90,-1,-1,-1,-1,-1,92,94,96,98,100,-1,102,104,106,-1,-1,-1,-1,-1,-1,-1,-1,-1,-1,-1,-1,-1,-1,-1,-1,-1,-1,-1,-1,-1,-1,-1,-1,-1,-1,-1,-1,-1,-1,-1,-1,-1,-1,-1,-1,-1,-1,-1,-1,-1,-1,-1,-1],"split_conditions":[-1.9905376E-1,8.079421E-1,-2.1643841E-1,2.544355E-1,2.5834968E0,2.4295764E0,-6.4814794E-1,-8.478811E-2,-1.557896E0,2.713731E0,1.5941452E0,1.3734162E0,9.2656523E-1,-1.3417792E-1,-1.4184194E0,1.4732724E0,-5.675355E-1,1.1870898E0,-3.893851E-1,8.55609E-1,2.1149964E0,-2.0281808E0,-1.4894701E0,-1.1652579E0,5.5808765E-1,-7.265192E-1,5.5880725E-1,-5.0371075E-1,2.9991786E0,-2.0804434E0,-1.4717969E0,-1.4017394E-1,1.6522114E0,-1.511513E0,-2.141272E0,-2.223799E0,-2.279898E-1,-6.008521E-1,-1.6826205E0,8.117021E-2,2.69101E0,3.2877235E0,-5.9387762E-2,-5.675679E-3,1.2870749E0,-5.8000006E-2,1.3783782E-2,-4.1208E-1,2.4611444E0,9.688525E-2,-3.439025E-2,1.3783782E-2,1.1000001E-1,3E-2,1.4754688E0,-1.3785422E0,-9.366681E-1,2.0282357E0,8.8101006E-1,3E-2,-7.351875E-2,-1.4934381E0,-1.1068932E0,-1.1047852E-2,-4.2983614E-2,-3.499505E-2,1.4536078E-2,-6.1578956E-2,4.310769E-2,4.7518246E-2,-1.2576117E-2,-6.0857147E-2,-2.2838201E-2,-5.0869573E-2,2.4522819E-2,1.4961103E-2,6.448505E-2,2.8268037E-2,-3.5208266E-3,-1.0416391E-2,-3.6752917E-2,-4.907693E-2,1.3783782E-2,8.777778E-2,-2.2653066E-2,3.8108107E-2,1.1487805E-1,-8.639009E-3,-2.9115317E-2,-1.1907571E-2,-3.42623E-2,-5.675679E-3,-6.1578956E-2,1.06015E-2,-4.3012053E-2,-7.1149194E-3,5.338658E-2,-2.174628E-2,6.5510206E-2,8.4545456E-2,-2.1111116E-2,-2.343619E-2,-4.847977E-2,-7.5106933E-3,5.2921344E-2,-3.665719E-2,-2.194569E-2],"split_indices":[34,28,2,29,31,9,30,36,20,37,37,18,40,9,9,22,9,40,0,38,19,13,12,28,22,30,18,5,9,8,11,13,31,28,40,13,28,0,36,30,26,5,0,0,5,0,0,31,28,0,0,0,0,0,15,5,25,38,27,0,18,11,35,0,0,0,0,0,0,0,0,0,0,0,0,0,0,0,0,0,0,0,0,0,0,0,0,0,0,0,0,0,0,0,0,0,0,0,0,0,0,0,0,0,0,0,0],"split_type":[0,0,0,0,0,0,0,0,0,0,0,0,0,0,0,0,0,0,0,0,0,0,0,0,0,0,0,0,0,0,0,0,0,0,0,0,0,0,0,0,0,0,0,0,0,0,0,0,0,0,0,0,0,0,0,0,0,0,0,0,0,0,0,0,0,0,0,0,0,0,0,0,0,0,0,0,0,0,0,0,0,0,0,0,0,0,0,0,0,0,0,0,0,0,0,0,0,0,0,0,0,0,0,0,0,0,0],"sum_hessian":[6.5546665E3,2.0959998E3,4.4586665E3,1.7457777E3,3.502222E2,2.1417776E3,2.3168887E3,1.2288888E3,5.1688885E2,3.333333E2,1.6888887E1,2.1168887E3,2.4888887E1,4.2844443E2,1.8884443E3,1.0328888E3,1.9599998E2,9.955555E1,4.173333E2,3.1644443E2,1.6888887E1,9.777777E0,7.1111107E0,2.1075554E3,9.333333E0,1.1111111E1,1.3777777E1,1.1866666E2,3.0977777E2,1.951111E2,1.6933333E3,9.1199994E2,1.20888885E2,4.0444443E1,1.5555554E2,6.711111E1,3.2444443E1,1.5999998E2,2.573333E2,2.4933331E2,6.711111E1,1.2444444E1,4.444444E0,3.111111E0,6.666666E0,3.9999998E0,3.111111E0,4.2577774E2,1.6817777E3,5.7777777E0,3.5555553E0,3.111111E0,7.9999995E0,5.333333E0,8.444444E0,4.0444443E1,7.822221E1,2.942222E2,1.5555554E1,5.333333E0,1.8977777E2,2.4177777E2,1.4515554E3,8.791111E2,3.2888885E1,1.1111111E2,9.777777E0,5.333333E0,3.511111E1,1.4222221E1,1.4133333E2,2.6222221E1,4.0888885E1,6.666666E0,2.5777777E1,1.2755555E2,3.2444443E1,5.2888885E1,2.0444443E2,1.6444443E2,8.4888885E1,6.3999996E1,3.111111E0,7.9999995E0,4.444444E0,3.111111E0,3.5555553E0,1.3288889E2,2.928889E2,1.6217777E3,5.9999996E1,3.111111E0,5.333333E0,1.3777777E1,2.6666664E1,4.4444443E1,3.3777775E1,2.8977777E2,4.444444E0,7.5555553E0,7.9999995E0,7.822221E1,1.1155555E2,2.3288887E2,8.888888E0,2.3333331E2,1.2182222E3],"tree_param":{"num_deleted":"0","num_feature":"47","num_nodes":"107","size_leaf_vector":"1"}},{"base_weights":[-1.318578E-1,-1.376909E-1,1.2568398E-1,4.7497656E-2,-1.4459176E-1,1.705869E-1,-4.688798E-1,-3.4804875E-1,1.1161883E-1,-1.4642647E-1,2.2451673E-1,-5.1767707E-2,2.1331897E-1,-6.265327E-2,-5.48431E-3,-8.147897E-2,-6.859615E-2,-2.025934E-2,2.9346702E-1,-2.0059076E-1,-1.336722E-1,7.139022E-1,-8.491194E-2,4.1161832E-1,3.3582885E-2,3.8507503E-2,-3.1685254E-1,-5.3490408E-2,8.723912E-2,2.361313E-2,4.814536E-1,-3.481601E-1,-1.7651965E-1,-2.4419986E-1,-1.256612E-1,3.1319475E-1,1.0672319E-1,5.099819E-2,-2.5364172E-1,4.8275623E-1,-5.56731E-2,-6.0379058E-2,1.7998031E-1,3.5921582E-3,-5.3472824E-2,-3.738557E-2,3.1366E-3,5.8963507E-2,-1.1217619E-2,7.0699506E-2,-1.7384825E-3,1.4981399E-2,-3.7409097E-2,-1.609108E-2,-3.9534915E-2,-8.50757E-3,-3.3470854E-2,-1.13606E-2,-2.08393E-2,-5.7932627E-3,6.342464E-2,1.873978E-2,-4.236156E-2,2.2422729E-2,7.6304995E-2,5.2245002E-2,-1.7221883E-3],"categories":[],"categories_nodes":[],"categories_segments":[],"categories_sizes":[],"default_left":[0,0,0,0,0,0,0,0,0,0,0,0,0,0,0,0,0,0,0,0,0,0,0,0,0,0,0,0,0,0,0,0,0,0,0,0,0,0,0,0,0,0,0,0,0,0,0,0,0,0,0,0,0,0,0,0,0,0,0,0,0,0,0,0,0,0,0],"id":3,"left_children":[1,3,5,7,9,11,13,15,17,19,21,-1,23,-1,-1,25,-1,27,29,31,33,35,37,39,41,-1,43,45,-1,47,49,51,53,55,57,59,-1,-1,61,63,-1,-1,65,-1,-1,-1,-1,-1,-1,-1,-1,-1,-1,-1,-1,-1,-1,-1,-1,-1,-1,-1,-1,-1,-1,-1,-1],"loss_changes":[9.825958E0,8.175957E0,3.914153E0,5.838625E0,4.1940155E0,4.063953E0,5.6808496E-1,2.754684E0,4.794855E0,4.172104E0,4.7532682E0,0E0,4.517491E0,0E0,0E0,2.225677E0,0E0,3.3969903E0,4.1915364E0,4.021446E0,4.3270416E0,1.2372298E0,2.0609663E0,4.441868E0,6.4764805E0,0E0,1.104039E0,3.107055E0,0E0,2.8575222E0,5.610978E0,2.1659222E0,3.3084927E0,4.733013E0,4.56266E0,9.5296216E-1,0E0,0E0,1.3016541E0,3.8726225E0,0E0,0E0,3.8931255E0,0E0,0E0,0E0,0E0,0E0,0E0,0E0,0E0,0E0,0E0,0E0,0E0,0E0,0E0,0E0,0E0,0E0,0E0,0E0,0E0,0E0,0E0,0E0,0E0],"parents":[2147483647,0,0,1,1,2,2,3,3,4,4,5,5,6,6,7,7,8,8,9,9,10,10,12,12,15,15,17,17,18,18,19,19,20,20,21,21,22,22,23,23,24,24,26,26,27,27,29,29,30,30,31,31,32,32,33,33,34,34,35,35,38,38,39,39,42,42],"right_children":[2,4,6,8,10,12,14,16,18,20,22,-1,24,-1,-1,26,-1,28,30,32,34,36,38,40,42,-1,44,46,-1,48,50,52,54,56,58,60,-1,-1,62,64,-1,-1,66,-1,-1,-1,-1,-1,-1,-1,-1,-1,-1,-1,-1,-1,-1,-1,-1,-1,-1,-1,-1,-1,-1,-1,-1],"split_conditions":[2.146102E0,-2.3565032E0,5.419596E-1,-1.9137304E0,3.9498708E0,1.6620174E-1,2.3925645E0,1.5871587E0,9.799947E-2,-7.427488E-1,1.2086295E0,-5.1767707E-2,-1.1874145E0,-6.265327E-2,-5.48431E-3,-2.277526E0,-6.859615E-2,1.2042257E0,-1.8752971E-1,-6.589353E-1,-2.0983357E0,3.1473591E0,1.7191962E0,3.3290067E0,-1.0701145E0,3.8507503E-2,-2.5716634E0,-1.2110289E0,8.723912E-2,1.7570077E-1,7.9091835E-1,-2.101441E0,8.947591E-1,-1.4535302E-1,1.9836694E0,4.965719E-1,1.0672319E-1,5.099819E-2,1.7329043E0,-9.776492E-1,-5.56731E-2,-6.0379058E-2,-5.9149706E-1,3.5921582E-3,-5.3472824E-2,-3.738557E-2,3.1366E-3,5.8963507E-2,-1.1217619E-2,7.0699506E-2,-1.7384825E-3,1.4981399E-2,-3.7409097E-2,-1.609108E-2,-3.9534915E-2,-8.50757E-3,-3.3470854E-2,-1.13606E-2,-2.08393E-2,-5.7932627E-3,6.342464E-2,1.873978E-2,-4.236156E-2,2.2422729E-2,7.6304995E-2,5.2245002E-2,-1.7221883E-3],"split_indices":[23,10,41,12,34,3,20,5,4,0,23,0,9,0,0,8,0,33,30,32,40,14,24,6,13,0,24,27,0,0,30,21,27,17,33,39,0,0,5,15,0,0,29,0,0,0,0,0,0,0,0,0,0,0,0,0,0,0,0,0,0,0,0,0,0,0,0],"split_type":[0,0,0,0,0,0,0,0,0,0,0,0,0,0,0,0,0,0,0,0,0,0,0,0,0,0,0,0,0,0,0,0,0,0,0,0,0,0,0,0,0,0,0,0,0,0,0,0,0,0,0,0,0,0,0,0,0,0,0,0,0,0,0,0,0,0,0],"sum_hessian":[6.527431E3,6.383699E3,1.4373174E2,2.2860384E2,6.155095E3,1.3445837E2,9.27335E0,3.1053787E1,1.9755005E2,6.125522E3,2.9573557E1,7.0735536E0,1.2738483E2,6.1694508E0,3.1038988E0,1.821866E1,1.2835126E1,1.14704124E2,8.2845924E1,1.163186E3,4.962336E3,1.1074457E1,1.84991E1,5.9686913E1,6.7697914E1,5.753428E0,1.2465233E1,1.1160159E2,3.1025357E0,3.469663E1,4.8149296E1,1.6065613E2,1.0025299E3,3.3252496E2,4.629811E3,6.205874E0,4.868583E0,3.5097094E0,1.4989389E1,5.616555E1,3.5213594E0,1.1933853E1,5.5764065E1,4.902877E0,7.562356E0,2.2903784E1,8.869781E1,6.209057E0,2.8487572E1,3.300832E1,1.5140974E1,7.5244017E0,1.5313173E2,9.37828E2,6.470187E1,1.2166661E2,2.1085835E2,4.044109E3,5.8570197E2,3.1141148E0,3.0917594E0,3.9776227E0,1.1011767E1,3.0339056E1,2.5826494E1,1.9959438E1,3.5804626E1],"tree_param":{"num_deleted":"0","num_feature":"47","num_nodes":"67","size_leaf_vector":"1"}},{"base_weights":[2.63876E-1,1.9015166E-1,2.940309E-1,1.6453643E-1,4.281221E-1,3.056126E-1,1.3170357E-1,2.3894821E-1,1.101096E-1,-4.0507025E-1,4.7752005E-1,3.2241085E-1,1.7643143E-1,-1.0235193E-1,2.231968E-1,3.8705257E-1,1.601398E-1,9.1074415E-2,5.357424E-1,-6.1482836E-2,-1.1040684E-2,8.9568335E-1,3.1313276E-1,2.9161936E-1,3.8180792E-1,4.114568E-1,9.7917944E-2,9.31799E-2,-3.3166996E-1,4.06349E-1,7.536518E-2,1.10723786E-1,3.5422805E-1,1.9411226E-1,-2.7653283E-1,4.6771672E-1,7.41225E-2,2.6389682E-1,1.0185149E0,2.3682338E-1,1.0272349E0,1.1331598E-1,5.603466E-1,3.024203E-1,3.830141E-2,2.2933008E-1,4.256973E-1,-6.849898E-2,5.2286583E-1,-1.3263452E-2,2.2025989E-1,5.9819853E-1,-7.172054E-2,-5.022055E-1,1.0876355E-1,6.0818124E-1,1.9814089E-1,-6.7014374E-2,2.5648174E-1,1.0818369E-2,4.5810692E-2,3.719857E-2,1.0091647E-2,-4.5275953E-2,4.985952E-2,6.307097E-2,-3.667138E-2,4.6825774E-2,5.865684E-3,5.183367E-2,-3.3633657E-2,1.15742736E-1,3.559559E-2,-1.6333263E-2,8.1716105E-2,3.5574473E-2,1.10784054E-1,4.0863868E-2,-2.0261949E-2,8.6971246E-2,2.3877176E-2,3.178398E-2,1.1755301E-2,2.20414E-2,-2.3928558E-2,4.975662E-3,3.516306E-2,1.914681E-2,4.4777695E-2,-4.7937322E-2,2.0917773E-2,7.069693E-2,1.3018988E-2,5.420744E-3,-3.8182028E-2,2.784508E-2,-2.3620354E-2,8.960346E-2,-0E0,6.72558E-2,-1.7431006E-2,-5.8238506E-2,1.17648775E-2,4.1629396E-2,-3.924073E-2,-1.1684862E-3,7.0643224E-2,2.1293657E-3,7.5377844E-2,-2.1360636E-2,5.2004393E-2,3.985094E-2,-1.9772371E-2],"categories":[],"categories_nodes":[],"categories_segments":[],"categories_sizes":[],"default_left":[0,0,0,0,0,0,0,0,0,0,0,0,0,0,0,0,0,0,0,0,0,0,0,0,0,0,0,0,0,0,0,0,0,0,0,0,0,0,0,0,0,0,0,0,0,0,0,0,0,0,0,0,0,0,0,0,0,0,0,0,0,0,0,0,0,0,0,0,0,0,0,0,0,0,0,0,0,0,0,0,0,0,0,0,0,0,0,0,0,0,0,0,0,0,0,0,0,0,0,0,0,0,0,0,0,0,0,0,0,0,0,0,0],"id":4,"left_children":[1,3,5,7,9,11,13,15,17,19,21,23,25,27,29,31,33,35,37,-1,-1,39,41,43,45,47,49,51,53,55,57,-1,59,61,63,65,67,69,71,73,75,77,79,81,83,85,87,89,91,93,95,97,99,101,103,105,107,109,111,-1,-1,-1,-1,-1,-1,-1,-1,-1,-1,-1,-1,-1,-1,-1,-1,-1,-1,-1,-1,-1,-1,-1,-1,-1,-1,-1,-1,-1,-1,-1,-1,-1,-1,-1,-1,-1,-1,-1,-1,-1,-1,-1,-1,-1,-1,-1,-1,-1,-1,-1,-1,-1,-1],"loss_changes":[1.4681915E1,1.1662437E1,8.785156E0,7.020294E0,7.896904E0,9.445679E0,6.8126707E0,8.485676E0,8.091826E0,5.3290546E-1,1.1772549E1,6.9424133E0,9.309445E0,4.0601873E0,6.0991526E0,5.4856377E0,7.2135286E0,6.10818E0,5.2348833E0,0E0,0E0,3.900364E0,6.2331734E0,6.9849854E0,8.703812E0,6.8689137E0,5.240153E0,4.1563344E0,3.2160745E0,4.0592556E0,3.3315215E0,0E0,6.163908E0,7.3601704E0,5.0127754E0,5.8829737E0,5.590118E0,4.6117754E0,8.151083E-1,2.434164E0,1.6592064E0,6.888729E0,5.3629932E0,6.942856E0,5.4399905E0,6.504983E0,5.1624756E0,2.9372995E0,7.2928524E0,5.062472E0,4.932829E0,2.2229776E0,2.9309447E0,1.6212211E0,2.0554326E0,3.168665E0,4.9797564E0,6.2792387E0,3.7604876E0,0E0,0E0,0E0,0E0,0E0,0E0,0E0,0E0,0E0,0E0,0E0,0E0,0E0,0E0,0E0,0E0,0E0,0E0,0E0,0E0,0E0,0E0,0E0,0E0,0E0,0E0,0E0,0E0,0E0,0E0,0E0,0E0,0E0,0E0,0E0,0E0,0E0,0E0,0E0,0E0,0E0,0E0,0E0,0E0,0E0,0E0,0E0,0E0,0E0,0E0,0E0,0E0,0E0,0E0],"parents":[2147483647,0,0,1,1,2,2,3,3,4,4,5,5,6,6,7,7,8,8,9,9,10,10,11,11,12,12,13,13,14,14,15,15,16,16,17,17,18,18,21,21,22,22,23,23,24,24,25,25,26,26,27,27,28,28,29,29,30,30,32,32,33,33,34,34,35,35,36,36,37,37,38,38,39,39,40,40,41,41,42,42,43,43,44,44,45,45,46,46,47,47,48,48,49,49,50,50,51,51,52,52,53,53,54,54,55,55,56,56,57,57,58,58],"right_children":[2,4,6,8,10,12,14,16,18,20,22,24,26,28,30,32,34,36,38,-1,-1,40,42,44,46,48,50,52,54,56,58,-1,60,62,64,66,68,70,72,74,76,78,80,82,84,86,88,90,92,94,96,98,100,102,104,106,108,110,112,-1,-1,-1,-1,-1,-1,-1,-1,-1,-1,-1,-1,-1,-1,-1,-1,-1,-1,-1,-1,-1,-1,-1,-1,-1,-1,-1,-1,-1,-1,-1,-1,-1,-1,-1,-1,-1,-1,-1,-1,-1,-1,-1,-1,-1,-1,-1,-1,-1,-1,-1,-1,-1,-1],"split_conditions":[-4.1987395E-1,1.3540701E0,1.4732724E0,-4.0645105E-1,-2.6446106E0,2.0969503E0,-4.47387E-1,-1.7660741E0,6.636463E-1,-9.483238E-1,-1.9220055E0,4.741047E-1,-1.5484291E0,-1.1363311E0,-6.7937696E-1,-2.4710104E0,-9.2631765E-2,-9.95435E-1,-1.0877345E-1,-6.1482836E-2,-1.1040684E-2,-1.0368319E0,-1.2604796E0,2.3837345E0,2.1821134E-1,-8.331153E-1,1.4492697E0,-9.9996203E-1,1.6604942E0,6.3398564E-1,1.5382392E0,1.10723786E-1,-1.7610812E0,-1.2112607E0,7.2787255E-1,-1.3083556E0,-1.7570786E0,9.587344E-1,-1.5406594E-1,1.880995E0,-2.4689796E0,-1.5907594E0,-1.0650587E0,1.5129019E0,-2.4663386E-1,9.053372E-1,-1.4143821E0,-1.6908032E0,2.4973783E-1,2.6028806E-1,1.6714445E0,1.5527769E0,-1.7707535E0,2.2747943E0,4.26726E0,-1.6896131E0,2.479457E0,8.997107E-1,2.826396E0,1.0818369E-2,4.5810692E-2,3.719857E-2,1.0091647E-2,-4.5275953E-2,4.985952E-2,6.307097E-2,-3.667138E-2,4.6825774E-2,5.865684E-3,5.183367E-2,-3.3633657E-2,1.15742736E-1,3.559559E-2,-1.6333263E-2,8.1716105E-2,3.5574473E-2,1.10784054E-1,4.0863868E-2,-2.0261949E-2,8.6971246E-2,2.3877176E-2,3.178398E-2,1.1755301E-2,2.20414E-2,-2.3928558E-2,4.975662E-3,3.516306E-2,1.914681E-2,4.4777695E-2,-4.7937322E-2,2.0917773E-2,7.069693E-2,1.3018988E-2,5.420744E-3,-3.8182028E-2,2.784508E-2,-2.3620354E-2,8.960346E-2,-0E0,6.72558E-2,-1.7431006E-2,-5.8238506E-2,1.17648775E-2,4.1629396E-2,-3.924073E-2,-1.1684862E-3,7.0643224E-2,2.1293657E-3,7.5377844E-2,-2.1360636E-2,5.2004393E-2,3.985094E-2,-1.9772371E-2],"split_indices":[34,28,22,5,11,16,40,16,24,39,16,36,12,40,12,35,28,31,31,0,0,23,25,34,25,6,36,29,32,15,6,0,13,33,28,11,4,15,38,28,12,13,34,25,6,22,26,12,4,23,29,23,14,15,30,15,20,24,2,0,0,0,0,0,0,0,0,0,0,0,0,0,0,0,0,0,0,0,0,0,0,0,0,0,0,0,0,0,0,0,0,0,0,0,0,0,0,0,0,0,0,0,0,0,0,0,0,0,0,0,0,0,0],"split_type":[0,0,0,0,0,0,0,0,0,0,0,0,0,0,0,0,0,0,0,0,0,0,0,0,0,0,0,0,0,0,0,0,0,0,0,0,0,0,0,0,0,0,0,0,0,0,0,0,0,0,0,0,0,0,0,0,0,0,0,0,0,0,0,0,0,0,0,0,0,0,0,0,0,0,0,0,0,0,0,0,0,0,0,0,0,0,0,0,0,0,0,0,0,0,0,0,0,0,0,0,0,0,0,0,0,0,0,0,0,0,0,0,0],"sum_hessian":[6.650051E3,1.933514E3,4.716537E3,1.7475217E3,1.8599232E2,4.401034E3,3.1550256E2,7.360181E2,1.0115036E3,9.89357E0,1.7609875E2,3.8925864E3,5.08448E2,8.832929E1,2.2717326E2,2.5382521E2,4.8219293E2,9.6959045E2,4.1913174E1,4.946474E0,4.9470954E0,4.8265514E1,1.2783324E2,2.5686108E3,1.3239755E3,1.2594E2,3.82508E2,4.77619E1,4.056739E1,1.0038217E2,1.2679109E2,9.5048895E0,2.4432031E2,4.4811475E2,3.4078167E1,4.036047E1,9.2923E2,2.7936247E1,1.3976927E1,8.625607E0,3.9639908E1,7.172367E1,5.610957E1,2.4630051E3,1.0560561E2,2.9781793E2,1.0261576E3,2.3629684E1,1.0231032E2,2.0043329E2,1.820747E2,1.1259062E1,3.650284E1,2.9306667E1,1.1260723E1,4.97522E1,5.062997E1,7.103043E1,5.576066E1,7.342119E1,1.7089912E2,1.5266809E2,2.9544666E2,2.8209576E1,5.8685923E0,3.406951E1,6.2909594E0,3.373618E1,8.9549384E2,1.9832333E1,8.103914E0,1.08122015E1,3.164725E0,5.428663E0,3.196944E0,4.9615355E0,3.467837E1,3.7083103E1,3.4640568E1,2.7570404E1,2.8539165E1,2.2722227E3,1.9078256E2,6.411126E1,4.1494358E1,1.215585E2,1.7625945E2,8.962133E1,9.3653625E2,9.38161E0,1.4248075E1,6.893539E1,3.3374935E1,1.6990985E2,3.0523436E1,1.6202809E2,2.0046618E1,7.232607E0,4.026455E0,3.6308372E0,3.2872E1,2.6146353E1,3.1603143E0,7.20714E0,4.053583E0,6.7882657E0,4.2963936E1,3.9330296E1,1.1299673E1,5.748305E1,1.3547381E1,4.2739143E1,1.3021514E1],"tree_param":{"num_deleted":"0","num_feature":"47","num_nodes":"113","size_leaf_vector":"1"}},{"base_weights":[-1.375895E-1,-9.3275785E-2,-1.5911022E-1,-6.394996E-3,-1.3056128E-1,2.5546637E-1,-1.6152471E-1,-2.633642E-1,2.5824968E-2,-5.943897E-2,-1.8160272E-1,4.3724832E-1,-4.230052E-2,-1.975279E-1,-1.3283892E-1,-3.2356102E-2,-4.962654E-1,-3.6903594E-2,1.6714895E-1,1.3667504E-1,-1.1888985E-1,-1.5328307E-1,-3.2660177E-1,1.16977274E-1,1.0172913E-1,-2.4526833E-1,-1.3148476E-1,-6.004242E-2,-1.5784407E-1,2.3613109E-1,-5.9920855E-2,-6.653138E-2,-5.800101E-1,-5.9047032E-2,-1.9378167E-2,2.865151E-1,-6.160065E-2,-1.869545E-1,2.3225282E-1,-9.2546545E-2,-4.7540647E-1,-2.4847552E-1,-1.05629764E-1,-1.6702537E-1,-5.309813E-1,4.838995E-1,-5.8560956E-2,-1.2123473E-2,-2.6320103E-1,-1.12746626E-1,-4.4161603E-1,3.3940515E-1,-7.957925E-2,-1.779112E-1,-3.4227446E-2,3.8744815E-2,-3.997575E-2,-5.3584095E-2,3.940949E-2,-1.694057E-2,-6.328559E-2,1.7109348E-2,-6.5852464E-3,5.636057E-2,1.3093293E-2,-2.1480102E-2,3.3559777E-2,3.2636672E-2,-3.3911157E-2,7.37676E-2,8.082195E-3,-1.9849477E-2,-5.14238E-4,-6.667859E-2,-0E0,-2.752009E-2,5.0976098E-2,6.263056E-2,-1.1512672E-2,-2.1824686E-2,7.23978E-2,-1.0089943E-2,-6.0791343E-2,-1.15910545E-2,8.289305E-2,1.7041408E-2,-2.6361814E-2,-2.6860887E-2,4.524051E-2,6.538082E-3,-1.4878019E-2,-6.867492E-2,-3.085179E-2,6.887416E-4,8.0541424E-2,-1.0520919E-2,2.5783984E-2,-1.8907921E-2,4.19923E-3,5.310004E-2,-6.6648833E-3],"categories":[],"categories_nodes":[],"categories_segments":[],"categories_sizes":[],"default_left":[0,0,0,0,0,0,0,0,0,0,0,0,0,0,0,0,0,0,0,0,0,0,0,0,0,0,0,0,0,0,0,0,0,0,0,0,0,0,0,0,0,0,0,0,0,0,0,0,0,0,0,0,0,0,0,0,0,0,0,0,0,0,0,0,0,0,0,0,0,0,0,0,0,0,0,0,0,0,0,0,0,0,0,0,0,0,0,0,0,0,0,0,0,0,0,0,0,0,0,0,0],"id":5,"left_children":[1,3,5,7,9,11,13,15,17,19,21,23,-1,25,27,29,31,33,35,37,39,41,43,45,-1,47,49,51,53,55,-1,57,59,-1,61,63,65,67,69,71,73,75,77,79,81,83,-1,85,87,89,91,93,95,97,99,-1,-1,-1,-1,-1,-1,-1,-1,-1,-1,-1,-1,-1,-1,-1,-1,-1,-1,-1,-1,-1,-1,-1,-1,-1,-1,-1,-1,-1,-1,-1,-1,-1,-1,-1,-1,-1,-1,-1,-1,-1,-1,-1,-1,-1,-1],"loss_changes":[6.207962E0,6.9359264E0,4.4432373E0,5.3804092E0,5.412016E0,3.3517847E0,4.466736E0,3.8277597E0,5.11418E0,7.3505416E0,3.4836483E0,3.6408756E0,0E0,6.0458603E0,4.416847E0,5.9072704E0,1.1844063E0,3.7924283E0,4.8826766E0,4.5777397E0,4.4426622E0,3.2596874E0,4.442049E0,4.0560594E0,0E0,4.6679153E0,4.6419277E0,4.8972588E0,4.480568E0,2.6692407E0,0E0,1.7731225E0,4.5528507E-1,0E0,3.429678E0,4.9007626E0,3.793073E0,2.7444386E0,8.563824E0,4.164124E0,3.0460835E0,5.037286E0,3.4295893E0,3.801674E0,1.8898602E0,2.2950056E0,0E0,3.8055043E0,4.1398926E0,4.9731283E0,1.1860743E0,4.438962E0,5.1937513E0,3.8599548E0,4.6753573E0,0E0,0E0,0E0,0E0,0E0,0E0,0E0,0E0,0E0,0E0,0E0,0E0,0E0,0E0,0E0,0E0,0E0,0E0,0E0,0E0,0E0,0E0,0E0,0E0,0E0,0E0,0E0,0E0,0E0,0E0,0E0,0E0,0E0,0E0,0E0,0E0,0E0,0E0,0E0,0E0,0E0,0E0,0E0,0E0,0E0,0E0],"parents":[2147483647,0,0,1,1,2,2,3,3,4,4,5,5,6,6,7,7,8,8,9,9,10,10,11,11,13,13,14,14,15,15,16,16,17,17,18,18,19,19,20,20,21,21,22,22,23,23,25,25,26,26,27,27,28,28,29,29,31,31,32,32,34,34,35,35,36,36,37,37,38,38,39,39,40,40,41,41,42,42,43,43,44,44,45,45,47,47,48,48,49,49,50,50,51,51,52,52,53,53,54,54],"right_children":[2,4,6,8,10,12,14,16,18,20,22,24,-1,26,28,30,32,34,36,38,40,42,44,46,-1,48,50,52,54,56,-1,58,60,-1,62,64,66,68,70,72,74,76,78,80,82,84,-1,86,88,90,92,94,96,98,100,-1,-1,-1,-1,-1,-1,-1,-1,-1,-1,-1,-1,-1,-1,-1,-1,-1,-1,-1,-1,-1,-1,-1,-1,-1,-1,-1,-1,-1,-1,-1,-1,-1,-1,-1,-1,-1,-1,-1,-1,-1,-1,-1,-1,-1,-1],"split_conditions":[-1.2996489E-1,-5.915727E-1,-1.1741583E0,-2.4551394E0,2.0884965E-2,-6.8165475E-1,1.1650722E0,-1.3193359E0,-2.0189908E-1,-1.786272E0,1.1915536E0,9.623402E-1,-4.230052E-2,8.1029266E-1,-1.1212399E-1,-2.7314064E-1,-1.5670301E0,-2.33557E0,7.2787255E-1,-1.2325708E0,1.7691107E0,1.8235703E-1,3.0860734E-1,1.0784459E-1,1.0172913E-1,-1.6129488E0,2.5009363E0,-2.3542577E-1,2.3506439E0,2.8353055E0,-5.9920855E-2,-2.4885685E0,-1.8631103E0,-5.9047032E-2,-1.3462007E0,-9.620486E-2,-9.7095656E-1,-2.340688E0,-1.349508E0,-3.7358135E-1,8.3578473E-1,1.0747668E0,-2.4409442E0,-6.9480665E-2,-5.469957E-1,-8.3800393E-1,-5.8560956E-2,1.2206174E0,2.5443082E0,-8.5088605E-1,1.5768026E0,-8.615528E-2,2.131341E0,2.6583974E0,-1.3265302E0,3.8744815E-2,-3.997575E-2,-5.3584095E-2,3.940949E-2,-1.694057E-2,-6.328559E-2,1.7109348E-2,-6.5852464E-3,5.636057E-2,1.3093293E-2,-2.1480102E-2,3.3559777E-2,3.2636672E-2,-3.3911157E-2,7.37676E-2,8.082195E-3,-1.9849477E-2,-5.14238E-4,-6.667859E-2,-0E0,-2.752009E-2,5.0976098E-2,6.263056E-2,-1.1512672E-2,-2.1824686E-2,7.23978E-2,-1.0089943E-2,-6.0791343E-2,-1.15910545E-2,8.289305E-2,1.7041408E-2,-2.6361814E-2,-2.6860887E-2,4.524051E-2,6.538082E-3,-1.4878019E-2,-6.867492E-2,-3.085179E-2,6.887416E-4,8.0541424E-2,-1.0520919E-2,2.5783984E-2,-1.8907921E-2,4.19923E-3,5.310004E-2,-6.6648833E-3],"split_indices":[34,27,31,37,0,30,12,21,28,35,29,18,0,20,14,11,18,20,28,20,38,17,38,17,0,21,3,35,11,29,0,33,3,0,38,26,34,11,8,31,1,29,38,16,30,28,0,24,16,14,18,1,34,14,27,0,0,0,0,0,0,0,0,0,0,0,0,0,0,0,0,0,0,0,0,0,0,0,0,0,0,0,0,0,0,0,0,0,0,0,0,0,0,0,0,0,0,0,0,0,0],"split_type":[0,0,0,0,0,0,0,0,0,0,0,0,0,0,0,0,0,0,0,0,0,0,0,0,0,0,0,0,0,0,0,0,0,0,0,0,0,0,0,0,0,0,0,0,0,0,0,0,0,0,0,0,0,0,0,0,0,0,0,0,0,0,0,0,0,0,0,0,0,0,0,0,0,0,0,0,0,0,0,0,0,0,0,0,0,0,0,0,0,0,0,0,0,0,0,0,0,0,0,0,0],"sum_hessian":[6.5506206E3,2.144605E3,4.4060156E3,6.451536E2,1.4994514E3,2.4665304E1,4.3813506E3,7.142619E1,5.737274E2,6.2821136E2,8.712401E2,1.984988E1,4.8154225E0,1.9387175E3,2.4426328E3,3.664618E1,3.4780014E1,3.9737738E2,1.7635005E2,1.4544444E2,4.827669E2,7.311806E2,1.4005952E2,1.3673901E1,6.1759806E0,1.1228314E3,8.158861E2,6.26405E2,1.8162278E3,2.5143902E1,1.1502276E1,6.1597853E0,2.862023E1,1.1016196E1,3.863612E2,1.16002335E2,6.0347713E1,3.2704296E1,1.1274015E2,4.5098343E2,3.1783466E1,2.4181572E2,4.8936487E2,7.994569E1,6.0113842E1,9.280697E0,4.3932033E0,8.0713936E1,1.0421176E3,7.7098895E2,4.489716E1,2.8206549E1,5.981985E2,1.5614962E3,2.5473163E2,2.0753359E1,4.390543E0,3.0777867E0,3.0819983E0,3.9588065E0,2.4661425E1,7.483245E1,3.1152875E2,4.053842E1,7.546391E1,4.406335E1,1.6284365E1,7.065566E0,2.5638731E1,2.4946325E1,8.779382E1,2.0277351E2,2.4820992E2,2.2516499E1,9.266968E0,2.3432544E2,7.4902744E0,5.3014507E0,4.8406342E2,7.641979E1,3.525889E0,9.669395E0,5.0444447E1,3.525724E0,5.7549734E0,4.6725113E1,3.398882E1,1.0350599E3,7.057588E0,1.291184E2,6.4187054E2,1.407096E1,3.0826199E1,1.717839E1,1.1028158E1,5.5688293E2,4.1315586E1,1.4865931E3,7.4903114E1,1.2817175E1,2.4191446E2],"tree_param":{"num_deleted":"0","num_feature":"47","num_nodes":"101","size_leaf_vector":"1"}},{"base_weights":[-1.2968452E-1,-1.4304568E-1,4.4046834E-2,-1.6781116E-1,-1.1054814E-1,7.100055E-1,2.6951997E-2,-1.7949152E-1,-8.684009E-3,1.6285595E-1,-1.19827546E-1,9.131918E-1,1.1632776E-2,3.5776387E-3,4.3525222E-1,-6.1103366E-2,-1.949514E-1,5.058526E-2,-3.199696E-1,3.7694666E-1,-1.3858142E-1,6.1530244E-1,-1.225618E-1,3.6670998E-2,1.1613987E-1,-2.8856618E-2,2.8279483E-1,8.017849E-1,2.2774598E-2,-1.252006E-1,2.4513087E-1,-3.1328106E-1,-1.846055E-1,1.0819573E-2,4.9656335E-1,3.199871E-2,-4.3647763E-1,1.1282151E-1,2.5242606E-1,3.1415462E-1,-3.260772E-1,1.0093117E-1,1.2103724E-2,-2.0381844E-1,-1.02858014E-1,7.354437E-1,-4.3616608E-2,3.710768E-1,-5.6090422E-2,1.05213724E-1,1.8596625E-2,5.6083966E-2,-2.886632E-1,-3.398256E-2,-5.4556453E-3,4.826698E-2,-6.8499297E-3,8.127559E-3,-3.4670167E-2,-1.5182231E-3,-1.946279E-2,-3.209558E-2,5.4690354E-3,7.908581E-2,-2.0895941E-2,-5.7437487E-2,-6.8382123E-3,-1.8135637E-2,5.1479258E-2,6.8820566E-2,-1.0034172E-2,1.8527048E-2,-4.987016E-2,-2.6895333E-2,8.55738E-4,-2.4069843E-3,-1.5103027E-2,1.09996155E-1,1.5867764E-2,-1.4317185E-2,2.6934345E-3,5.4433133E-2,-1.3604037E-2,-5.9015185E-2,1.6154183E-2],"categories":[],"categories_nodes":[],"categories_segments":[],"categories_sizes":[],"default_left":[0,0,0,0,0,0,0,0,0,0,0,0,0,0,0,0,0,0,0,0,0,0,0,0,0,0,0,0,0,0,0,0,0,0,0,0,0,0,0,0,0,0,0,0,0,0,0,0,0,0,0,0,0,0,0,0,0,0,0,0,0,0,0,0,0,0,0,0,0,0,0,0,0,0,0,0,0,0,0,0,0,0,0,0,0],"id":6,"left_children":[1,3,5,7,9,11,13,15,17,19,21,23,-1,25,27,29,31,33,35,37,39,41,43,-1,-1,45,47,49,51,53,55,57,59,61,63,-1,65,-1,67,69,71,-1,-1,73,75,77,79,81,-1,-1,-1,-1,83,-1,-1,-1,-1,-1,-1,-1,-1,-1,-1,-1,-1,-1,-1,-1,-1,-1,-1,-1,-1,-1,-1,-1,-1,-1,-1,-1,-1,-1,-1,-1,-1],"loss_changes":[1.4972458E1,4.7694855E0,5.14821E0,6.284622E0,6.592701E0,1.158226E0,4.2495594E0,5.7454147E0,4.353102E0,5.5728436E0,5.0681496E0,5.3000593E-1,0E0,3.8996828E0,3.5471807E0,7.2253776E0,3.31221E0,3.4347029E0,2.9675448E0,4.2794485E0,3.1518123E0,1.580967E0,3.9511795E0,0E0,0E0,4.284239E0,3.5291643E0,1.6258907E0,2.28551E0,4.559372E0,4.8137145E0,2.987238E0,4.343521E0,2.6392553E0,3.5218735E0,0E0,1.5465856E0,0E0,5.193699E0,1.8130499E0,2.4222968E0,0E0,0E0,6.75008E0,7.627268E0,1.2101965E0,2.6625547E0,3.7438416E0,0E0,0E0,0E0,0E0,1.2873485E0,0E0,0E0,0E0,0E0,0E0,0E0,0E0,0E0,0E0,0E0,0E0,0E0,0E0,0E0,0E0,0E0,0E0,0E0,0E0,0E0,0E0,0E0,0E0,0E0,0E0,0E0,0E0,0E0,0E0,0E0,0E0,0E0],"parents":[2147483647,0,0,1,1,2,2,3,3,4,4,5,5,6,6,7,7,8,8,9,9,10,10,11,11,13,13,14,14,15,15,16,16,17,17,18,18,19,19,20,20,21,21,22,22,25,25,26,26,27,27,28,28,29,29,30,30,31,31,32,32,33,33,34,34,36,36,38,38,39,39,40,40,43,43,44,44,45,45,46,46,47,47,52,52],"right_children":[2,4,6,8,10,12,14,16,18,20,22,24,-1,26,28,30,32,34,36,38,40,42,44,-1,-1,46,48,50,52,54,56,58,60,62,64,-1,66,-1,68,70,72,-1,-1,74,76,78,80,82,-1,-1,-1,-1,84,-1,-1,-1,-1,-1,-1,-1,-1,-1,-1,-1,-1,-1,-1,-1,-1,-1,-1,-1,-1,-1,-1,-1,-1,-1,-1,-1,-1,-1,-1,-1,-1],"split_conditions":[1.5641216E0,2.4710525E-2,5.164931E-1,2.2974656E0,-2.4144015E0,-1.4978229E-1,3.0117493E0,-1.4928994E0,-1.5024377E-1,9.708151E-1,-2.8339374E0,1.654849E0,1.1632776E-2,2.5245018E0,9.7181946E-1,9.8904467E-1,-1.7971461E0,9.856988E-1,-1.896106E-1,-1.4338509E0,-1.6077417E0,-1.4362159E0,-8.482902E-1,3.6670998E-2,1.1613987E-1,-2.7676928E0,1.4937881E0,1.5388426E0,-1.2742672E0,-1.2971998E0,1.3790799E0,-5.822199E-1,-1.9121599E0,5.1620966E-1,2.942012E0,3.199871E-2,1.9322609E0,1.1282151E-1,-9.717479E-1,-1.8500854E0,-1.1690023E0,1.0093117E-1,1.2103724E-2,1.7049413E0,3.9696302E-2,2.0750227E0,-6.417687E-1,4.922555E-1,-5.6090422E-2,1.05213724E-1,1.8596625E-2,5.6083966E-2,3.617722E0,-3.398256E-2,-5.4556453E-3,4.826698E-2,-6.8499297E-3,8.127559E-3,-3.4670167E-2,-1.5182231E-3,-1.946279E-2,-3.209558E-2,5.4690354E-3,7.908581E-2,-2.0895941E-2,-5.7437487E-2,-6.8382123E-3,-1.8135637E-2,5.1479258E-2,6.8820566E-2,-1.0034172E-2,1.8527048E-2,-4.987016E-2,-2.6895333E-2,8.55738E-4,-2.4069843E-3,-1.5103027E-2,1.09996155E-1,1.5867764E-2,-1.4317185E-2,2.6934345E-3,5.4433133E-2,-1.3604037E-2,-5.9015185E-2,1.6154183E-2],"split_indices":[22,4,27,11,13,31,18,5,0,29,28,22,0,22,0,24,19,6,28,23,24,5,18,0,0,25,12,33,29,22,24,40,33,36,11,0,20,0,23,11,38,0,0,12,18,34,34,28,0,0,0,0,33,0,0,0,0,0,0,0,0,0,0,0,0,0,0,0,0,0,0,0,0,0,0,0,0,0,0,0,0,0,0,0,0],"split_type":[0,0,0,0,0,0,0,0,0,0,0,0,0,0,0,0,0,0,0,0,0,0,0,0,0,0,0,0,0,0,0,0,0,0,0,0,0,0,0,0,0,0,0,0,0,0,0,0,0,0,0,0,0,0,0,0,0,0,0,0,0,0,0,0,0,0,0,0,0,0,0,0,0,0,0,0,0,0,0,0,0,0,0,0,0],"sum_hessian":[6.4421846E3,5.9828164E3,4.5936823E2,3.3912197E3,2.5915964E3,1.0335815E1,4.490324E2,3.1586125E3,2.3260733E2,8.417507E1,2.5074214E3,7.173908E0,3.161907E0,4.2590396E2,2.3128456E1,3.6614883E2,2.7924636E3,1.9583607E2,3.677125E1,4.9265995E1,3.490908E1,8.325866E0,2.4990955E3,3.140261E0,4.0336475E0,3.8206165E2,4.3842304E1,1.1618157E1,1.15103E1,3.035344E2,6.2614433E1,2.213909E2,2.5710728E3,1.8095012E2,1.4885951E1,5.2621984E0,3.1509052E1,5.744463E0,4.3521534E1,9.869309E0,2.503977E1,3.9403806E0,4.385485E0,4.84918E2,2.0141775E3,6.18507E0,3.758766E2,4.0303753E1,3.538552E0,7.640938E0,3.9772193E0,4.0439425E0,7.466357E0,7.3873215E1,2.2966118E2,3.550405E1,2.7110384E1,1.6942863E1,2.0444804E2,1.442973E2,2.4267754E3,2.0128883E1,1.6082124E2,1.0518962E1,4.366989E0,2.2316648E1,9.192405E0,1.6375237E1,2.7146296E1,4.9674673E0,4.901842E0,6.154973E0,1.8884796E1,3.712588E2,1.1365921E2,7.6559076E2,1.2485868E3,3.1277955E0,3.0572746E0,1.5605446E2,2.1982213E2,3.013281E1,1.0170943E1,4.418615E0,3.0477424E0],"tree_param":{"num_deleted":"0","num_feature":"47","num_nodes":"85","size_leaf_vector":"1"}},{"base_weights":[2.4312845E-1,2.061279E-1,2.869345E-1,2.1077468E-1,-1.3031389E-1,7.511925E-2,2.9905492E-1,1.8620156E-1,3.0120575E-1,-3.7134904E-1,3.061136E-1,-4.682563E-1,1.332544E-1,3.1647727E-1,1.712248E-1,2.5142676E-1,1.3388996E-1,3.4866685E-1,1.9481349E-1,-1.5376627E-2,-5.744669E-1,-1.02183804E-1,9.3088344E-2,-6.2064428E-2,3.528167E-3,-4.486146E-1,1.8179658E-1,3.0422392E-1,6.0512793E-1,1.8932565E-1,-5.53976E-2,2.4241589E-1,8.1576735E-1,1.4280279E-1,-2.5796133E-1,-4.0354562E-1,3.6342084E-1,-1.1862662E-1,2.6139453E-1,6.215427E-2,-4.3152982E-1,-6.544004E-2,-7.2687566E-3,-4.9246017E-2,3.459118E-2,1.0924927E-2,-6.74664E-2,7.46894E-1,1.0789804E-1,3.1977394E-1,1.4163136E-1,-2.7635187E-1,6.714947E-1,-1.19058356E-1,2.2225717E-1,2.2135852E-2,4.5213446E-2,1.0202072E-1,1.7623318E-2,-1.2749121E-2,1.5538854E-2,1.7339425E-2,-5.73465E-2,-6.526701E-2,1.0848306E-2,1.042172E-2,3.984379E-2,-2.7259478E-2,5.8297325E-2,1.8691527E-2,4.603162E-2,-6.0574528E-2,-7.2248364E-3,9.681408E-2,-9.028375E-3,6.134018E-2,3.605048E-3,2.058303E-2,3.3985715E-2,-1.1482293E-2,2.5073186E-2,1.1157891E-2,-5.8616843E-2,7.095053E-2,-3.1666927E-2,-3.1727027E-2,5.1356077E-2,2.3546796E-2,-6.007139E-2],"categories":[],"categories_nodes":[],"categories_segments":[],"categories_sizes":[],"default_left":[0,0,0,0,0,0,0,0,0,0,0,0,0,0,0,0,0,0,0,0,0,0,0,0,0,0,0,0,0,0,0,0,0,0,0,0,0,0,0,0,0,0,0,0,0,0,0,0,0,0,0,0,0,0,0,0,0,0,0,0,0,0,0,0,0,0,0,0,0,0,0,0,0,0,0,0,0,0,0,0,0,0,0,0,0,0,0,0,0],"id":7,"left_children":[1,3,5,7,9,11,13,15,17,19,21,23,25,27,29,31,33,35,37,39,41,43,-1,-1,-1,45,47,49,51,53,-1,55,57,59,61,63,65,67,69,-1,71,-1,-1,-1,-1,-1,-1,73,75,77,79,81,83,85,87,-1,-1,-1,-1,-1,-1,-1,-1,-1,-1,-1,-1,-1,-1,-1,-1,-1,-1,-1,-1,-1,-1,-1,-1,-1,-1,-1,-1,-1,-1,-1,-1,-1,-1],"loss_changes":[1.083844E1,5.7669373E0,7.869705E0,7.932358E0,5.4082336E0,5.3661175E0,6.4018555E0,9.643547E0,3.7674637E0,2.31702E0,4.8425674E0,1.3376856E0,4.3925533E0,8.809784E0,4.7047405E0,6.1308823E0,5.554516E0,6.033249E0,5.065299E0,3.7450972E0,7.137542E-1,2.2596283E0,0E0,0E0,0E0,1.6378231E0,5.7896137E0,6.144165E0,6.265457E0,3.5452776E0,0E0,5.3396606E0,2.2225122E0,5.2915363E0,4.9457006E0,1.4714605E0,4.639084E0,4.7263927E0,2.7971945E0,0E0,4.3062973E-1,0E0,0E0,0E0,0E0,0E0,0E0,3.1698847E0,4.5418E0,5.0234833E0,6.1317697E0,1.0542338E0,3.8855553E0,4.3679247E0,3.5055466E0,0E0,0E0,0E0,0E0,0E0,0E0,0E0,0E0,0E0,0E0,0E0,0E0,0E0,0E0,0E0,0E0,0E0,0E0,0E0,0E0,0E0,0E0,0E0,0E0,0E0,0E0,0E0,0E0,0E0,0E0,0E0,0E0,0E0,0E0],"parents":[2147483647,0,0,1,1,2,2,3,3,4,4,5,5,6,6,7,7,8,8,9,9,10,10,11,11,12,12,13,13,14,14,15,15,16,16,17,17,18,18,19,19,20,20,21,21,25,25,26,26,27,27,28,28,29,29,31,31,32,32,33,33,34,34,35,35,36,36,37,37,38,38,40,40,47,47,48,48,49,49,50,50,51,51,52,52,53,53,54,54],"right_children":[2,4,6,8,10,12,14,16,18,20,22,24,26,28,30,32,34,36,38,40,42,44,-1,-1,-1,46,48,50,52,54,-1,56,58,60,62,64,66,68,70,-1,72,-1,-1,-1,-1,-1,-1,74,76,78,80,82,84,86,88,-1,-1,-1,-1,-1,-1,-1,-1,-1,-1,-1,-1,-1,-1,-1,-1,-1,-1,-1,-1,-1,-1,-1,-1,-1,-1,-1,-1,-1,-1,-1,-1,-1,-1],"split_conditions":[4.8523195E-2,2.6677587E0,-1.9735577E0,7.059414E-1,2.0834138E0,-1.3478888E0,1.7638088E0,-4.3315044E-1,6.1236095E-1,-9.593896E-1,1.3324776E0,1.9978437E0,-1.4240122E0,1.4546146E0,3.1473591E0,2.5009363E0,2.5779197E0,-1.8658153E0,-9.1064113E-1,1.2227626E0,2.259857E0,1.8735442E0,9.3088344E-2,-6.2064428E-2,3.528167E-3,-1.0940198E0,-1.2018439E0,2.2477574E0,-2.401325E-1,-8.6865157E-1,-5.53976E-2,1.4053857E0,2.715364E0,-1.8174865E0,2.1387346E0,1.237192E0,-2.2550826E0,2.3841238E0,8.6969984E-1,6.215427E-2,1.3485613E0,-6.544004E-2,-7.2687566E-3,-4.9246017E-2,3.459118E-2,1.0924927E-2,-6.74664E-2,6.2413716E-1,-7.88082E-1,-1.3139088E0,-1.3629247E-1,-1.7767946E-1,3.2400753E0,4.0237117E-1,1.4732724E0,2.2135852E-2,4.5213446E-2,1.0202072E-1,1.7623318E-2,-1.2749121E-2,1.5538854E-2,1.7339425E-2,-5.73465E-2,-6.526701E-2,1.0848306E-2,1.042172E-2,3.984379E-2,-2.7259478E-2,5.8297325E-2,1.8691527E-2,4.603162E-2,-6.0574528E-2,-7.2248364E-3,9.681408E-2,-9.028375E-3,6.134018E-2,3.605048E-3,2.058303E-2,3.3985715E-2,-1.1482293E-2,2.5073186E-2,1.1157891E-2,-5.8616843E-2,7.095053E-2,-3.1666927E-2,-3.1727027E-2,5.1356077E-2,2.3546796E-2,-6.007139E-2],"split_indices":[25,10,5,28,2,17,28,5,15,39,23,11,24,26,14,3,18,41,0,41,12,12,0,0,0,9,41,16,23,30,0,40,19,41,2,5,11,15,38,0,40,0,0,0,0,0,0,30,30,26,3,18,35,27,22,0,0,0,0,0,0,0,0,0,0,0,0,0,0,0,0,0,0,0,0,0,0,0,0,0,0,0,0,0,0,0,0,0,0],"split_type":[0,0,0,0,0,0,0,0,0,0,0,0,0,0,0,0,0,0,0,0,0,0,0,0,0,0,0,0,0,0,0,0,0,0,0,0,0,0,0,0,0,0,0,0,0,0,0,0,0,0,0,0,0,0,0,0,0,0,0,0,0,0,0,0,0,0,0,0,0,0,0,0,0,0,0,0,0,0,0,0,0,0,0,0,0,0,0,0,0],"sum_hessian":[6.7527866E3,3.6650823E3,3.0877043E3,3.6158132E3,4.926919E1,1.6795703E2,2.9197473E3,2.8464922E3,7.6932104E2,3.1983324E1,1.7285866E1,1.5384739E1,1.525723E2,2.5675505E3,3.521968E2,1.264331E3,1.582161E3,5.297741E2,2.3954692E2,1.2189228E1,1.9794098E1,1.0863063E1,6.422804E0,1.1784401E1,3.600338E0,1.0954945E1,1.4161736E2,2.465298E3,1.02252556E2,3.4447562E2,7.721203E0,1.2460422E3,1.8288897E1,1.5478453E3,3.431566E1,9.553856E0,5.202203E2,4.1569363E1,1.9797755E2,4.5269403E0,7.662287E0,1.663991E1,3.154188E0,5.872484E0,4.990578E0,3.1804006E0,7.774544E0,1.5168045E1,1.264493E2,2.248659E3,2.1663913E2,6.8325267E0,9.542003E1,3.2691097E1,3.1178452E2,1.1346471E3,1.1139515E2,1.3289155E1,4.9997406E0,6.810618E1,1.4797391E3,1.455271E1,1.976295E1,6.373496E0,3.1803598E0,6.2727802E1,4.5749246E2,3.470684E1,6.862521E0,1.4582198E2,5.2155586E1,4.510718E0,3.1515694E0,1.1968153E1,3.199892E0,1.462458E1,1.1182472E2,3.3938083E2,1.9092781E3,6.4367134E1,1.5227199E2,3.1745982E0,3.6579282E0,9.225458E1,3.1654518E0,2.5391882E1,7.2992163E0,3.0768085E2,4.10367E0],"tree_param":{"num_deleted":"0","num_feature":"47","num_nodes":"89","size_leaf_vector":"1"}},{"base_weights":[-1.2842731E-1,-9.7118475E-2,-1.6627605E-1,-9.072128E-2,-3.1948128E-1,3.8417783E-2,-1.7797148E-1,-1.0064656E-1,6.1706636E-2,6.448015E-2,-3.5838655E-1,-1.1640606E-1,2.1986416E-1,-4.261106E-1,-1.70147E-1,-1.2543736E-1,-5.384578E-2,3.4209344E-1,-5.0009716E-2,-7.561011E-2,-4.2459074E-1,-5.060281E-1,3.882831E-2,3.8511357E-1,-3.795412E-1,-5.7152885E-1,-1.4705849E-1,6.875136E-2,-1.7227492E-1,-5.5636387E-2,-1.5200852E-1,6.3231885E-1,-6.268529E-2,1.8305941E-1,8.843409E-1,-1.720507E-1,1.9113506E-1,-5.891193E-2,1.4022374E-1,-5.0050753E-1,-5.74921E-2,5.8953576E-3,-6.076455E-1,5.733111E-1,-7.417091E-2,1.355067E-1,7.856686E-1,-5.986905E-2,4.0250365E-2,-6.16613E-1,-2.8971545E-3,2.057471E-2,-5.3847898E-2,-1.8389909E-1,-2.0912385E-2,-4.1871727E-2,-2.8804976E-3,-1.7647622E-2,-4.1750628E-3,1.2093387E-1,1.8672574E-2,-1.9066167E-4,-1.2432037E-2,7.24045E-2,-2.1365096E-3,2.0276662E-2,1.1378626E-1,7.271341E-2,-2.3948057E-2,4.8088945E-2,-2.0612119E-2,6.6190094E-2,-4.774117E-3,-5.5102814E-2,1.2885617E-2,6.5939344E-2,-3.14185E-2,-1.1226271E-2,-6.9408886E-2,-3.1913572E-3,9.892433E-2,8.257672E-3,-4.016835E-2,5.5389613E-2,-9.767952E-3,-2.282755E-3,9.923927E-2,-6.514268E-2,-3.6439952E-3,3.016913E-2,-4.175037E-2,-1.1737343E-2,-2.0402951E-2,2.6007554E-2,-8.015756E-3],"categories":[],"categories_nodes":[],"categories_segments":[],"categories_sizes":[],"default_left":[0,0,0,0,0,0,0,0,0,0,0,0,0,0,0,0,0,0,0,0,0,0,0,0,0,0,0,0,0,0,0,0,0,0,0,0,0,0,0,0,0,0,0,0,0,0,0,0,0,0,0,0,0,0,0,0,0,0,0,0,0,0,0,0,0,0,0,0,0,0,0,0,0,0,0,0,0,0,0,0,0,0,0,0,0,0,0,0,0,0,0,0,0,0,0],"id":8,"left_children":[1,3,5,7,9,11,13,15,17,-1,19,21,23,25,27,29,31,33,35,37,39,41,43,45,47,49,51,-1,53,55,57,59,61,63,65,67,69,-1,71,73,75,-1,77,79,81,83,85,-1,-1,87,-1,89,-1,91,93,-1,-1,-1,-1,-1,-1,-1,-1,-1,-1,-1,-1,-1,-1,-1,-1,-1,-1,-1,-1,-1,-1,-1,-1,-1,-1,-1,-1,-1,-1,-1,-1,-1,-1,-1,-1,-1,-1,-1,-1],"loss_changes":[7.62677E0,4.973942E0,7.028244E0,5.2273273E0,3.8911524E0,4.4903927E0,5.245125E0,3.732933E0,6.650153E0,0E0,1.7011185E0,5.2627993E0,7.441801E0,3.2367687E0,4.9706726E0,3.8935318E0,6.8040442E0,4.9443197E0,4.4858747E0,2.296885E0,2.0524216E0,1.510663E0,3.8480465E0,5.636346E0,3.0523171E0,1.2477932E0,2.0460496E0,0E0,4.693161E0,5.649661E0,4.0991325E0,3.2985487E0,4.15053E0,5.4101205E0,1.9342346E0,6.2680016E0,6.0045013E0,0E0,1.5101146E0,2.1222239E0,2.8401415E0,0E0,7.493305E-1,2.926877E0,2.7377627E0,3.740478E0,3.8037968E0,0E0,0E0,9.171791E-1,0E0,2.817041E0,0E0,3.2774734E0,3.215175E0,0E0,0E0,0E0,0E0,0E0,0E0,0E0,0E0,0E0,0E0,0E0,0E0,0E0,0E0,0E0,0E0,0E0,0E0,0E0,0E0,0E0,0E0,0E0,0E0,0E0,0E0,0E0,0E0,0E0,0E0,0E0,0E0,0E0,0E0,0E0,0E0,0E0,0E0,0E0,0E0],"parents":[2147483647,0,0,1,1,2,2,3,3,4,4,5,5,6,6,7,7,8,8,10,10,11,11,12,12,13,13,14,14,15,15,16,16,17,17,18,18,19,19,20,20,21,21,22,22,23,23,24,24,25,25,26,26,28,28,29,29,30,30,31,31,32,32,33,33,34,34,35,35,36,36,38,38,39,39,40,40,42,42,43,43,44,44,45,45,46,46,49,49,51,51,53,53,54,54],"right_children":[2,4,6,8,10,12,14,16,18,-1,20,22,24,26,28,30,32,34,36,38,40,42,44,46,48,50,52,-1,54,56,58,60,62,64,66,68,70,-1,72,74,76,-1,78,80,82,84,86,-1,-1,88,-1,90,-1,92,94,-1,-1,-1,-1,-1,-1,-1,-1,-1,-1,-1,-1,-1,-1,-1,-1,-1,-1,-1,-1,-1,-1,-1,-1,-1,-1,-1,-1,-1,-1,-1,-1,-1,-1,-1,-1,-1,-1,-1,-1],"split_conditions":[7.38485E-1,2.2866664E0,-1.3478888E0,1.7171104E0,-2.340688E0,-1.7293273E0,-1.8429493E0,2.544355E-1,-8.1728405E-1,6.448015E-2,-1.769024E0,-3.8045108E-1,9.1374236E-1,-1.8287446E0,-2.1653516E0,-1.8039824E0,-2.3278215E0,5.20146E-1,4.4369143E-1,6.669183E-1,2.0911381E0,-1.3851522E0,-5.085665E-1,9.320682E-2,-2.613046E-1,-1.2351152E0,1.5252876E0,6.875136E-2,2.6260302E0,-1.9121599E0,1.30003E0,2.2849743E-1,6.7931485E-1,-5.128103E-1,-9.715676E-1,-1.522335E0,1.1715099E0,-5.891193E-2,-8.187016E-1,2.2477574E0,1.113979E-2,5.8953576E-3,6.353823E-1,-1.721256E0,-1.6668626E0,7.1597093E-1,-1.3596444E0,-5.986905E-2,4.0250365E-2,1.5951995E0,-2.8971545E-3,-1.2406019E0,-5.3847898E-2,-6.2328238E-2,3.3721058E-3,-4.1871727E-2,-2.8804976E-3,-1.7647622E-2,-4.1750628E-3,1.2093387E-1,1.8672574E-2,-1.9066167E-4,-1.2432037E-2,7.24045E-2,-2.1365096E-3,2.0276662E-2,1.1378626E-1,7.271341E-2,-2.3948057E-2,4.8088945E-2,-2.0612119E-2,6.6190094E-2,-4.774117E-3,-5.5102814E-2,1.2885617E-2,6.5939344E-2,-3.14185E-2,-1.1226271E-2,-6.9408886E-2,-3.1913572E-3,9.892433E-2,8.257672E-3,-4.016835E-2,5.5389613E-2,-9.767952E-3,-2.282755E-3,9.923927E-2,-6.514268E-2,-3.6439952E-3,3.016913E-2,-4.175037E-2,-1.1737343E-2,-2.0402951E-2,2.6007554E-2,-8.015756E-3],"split_indices":[33,28,17,15,11,21,10,29,26,0,15,29,41,24,24,11,38,33,28,12,35,28,35,38,20,9,37,0,10,33,16,30,5,0,27,22,28,0,24,16,8,0,16,2,27,13,15,0,0,12,0,24,0,13,27,0,0,0,0,0,0,0,0,0,0,0,0,0,0,0,0,0,0,0,0,0,0,0,0,0,0,0,0,0,0,0,0,0,0,0,0,0,0,0,0],"split_type":[0,0,0,0,0,0,0,0,0,0,0,0,0,0,0,0,0,0,0,0,0,0,0,0,0,0,0,0,0,0,0,0,0,0,0,0,0,0,0,0,0,0,0,0,0,0,0,0,0,0,0,0,0,0,0,0,0,0,0,0,0,0,0,0,0,0,0,0,0,0,0,0,0,0,0,0,0,0,0,0,0,0,0,0,0,0,0,0,0,0,0,0,0,0,0],"sum_hessian":[6.470948E3,3.544835E3,2.9261133E3,3.4475105E3,9.732443E1,1.5756535E2,2.768548E3,3.2376855E3,2.0982495E2,3.0707464E0,9.4253685E1,8.491594E1,7.2649414E1,8.260614E1,2.685942E3,2.1140415E3,1.123644E3,5.944992E1,1.5037503E2,1.8573534E1,7.568015E1,2.3733004E1,6.1182938E1,5.736018E1,1.5289229E1,5.3381683E1,2.9224459E1,5.734061E0,2.6802078E3,5.847617E2,1.5292798E3,1.3250258E1,1.1103938E3,4.7144943E1,1.2304977E1,1.00310234E2,5.00648E1,5.121749E0,1.3451785E1,6.218445E1,1.3495706E1,3.5318842E0,2.0201118E1,1.0121227E1,5.106171E1,3.6317062E1,2.1043118E1,1.2225617E1,3.0636117E0,4.899002E1,4.391663E0,2.0945927E1,8.278532E0,2.488243E3,1.9196484E2,3.897825E1,5.4578345E2,1.2503115E3,2.789683E2,4.9290185E0,8.321239E0,5.60417E2,5.499768E2,1.2366297E1,3.4778645E1,3.9310055E0,8.373972E0,6.211575E0,9.4098656E1,2.8973236E1,2.1091562E1,3.0360763E0,1.0415709E1,5.7825974E1,4.358474E0,3.041923E0,1.0453782E1,3.5147219E0,1.6686398E1,4.4006596E0,5.720568E0,3.4833107E1,1.6228603E1,1.2658436E1,2.3658627E1,4.3675394E0,1.667558E1,4.593827E1,3.0517478E0,1.3087335E1,7.858592E0,5.807654E2,1.9074777E3,3.2542866E1,1.5942198E2],"tree_param":{"num_deleted":"0","num_feature":"47","num_nodes":"95","size_leaf_vector":"1"}},{"base_weights":[-1.2256557E-1,-1.2838005E-1,1.1427412E-1,-1.4893869E-1,-8.20904E-2,1.6900547E-1,-3.6779612E-1,-1.5118103E-1,5.098256E-1,2.3486915E-1,-9.1918424E-2,-4.0064566E-2,3.4526858E-1,2.0043993E-2,-5.813679E-2,-1.539527E-1,2.4422953E-1,1.1604573E-1,4.4609442E-2,-2.7450258E-1,4.6255374E-1,-2.2234604E-1,-6.773816E-2,3.316131E-1,-2.7677745E-1,4.7877347E-1,-1.1152259E-2,-1.0328234E-1,-1.7193933E-1,5.048919E-1,-1.7196871E-1,-4.2092845E-2,6.0144592E-2,2.8203532E-2,-5.342252E-1,-1.2686273E-1,6.236971E-1,-2.555932E-1,2.8106505E-1,1.5121934E-1,-9.594048E-2,-1.969569E-2,7.634909E-1,-3.7049377E-1,5.9158195E-2,1.6062072E-1,7.264763E-1,6.1880816E-2,-1.5781286E-1,-3.1530205E-2,-8.185008E-3,-2.9787807E-2,-1.623313E-2,-6.8624853E-3,7.0940144E-2,-4.8729114E-2,2.5205731E-2,-6.682467E-2,-5.5234176E-3,3.7757058E-2,-4.5258094E-2,7.923168E-2,-0E0,-1.0690096E-2,-3.572211E-2,-1.30393375E-2,6.7329556E-2,3.1480085E-2,-5.154596E-3,-8.485296E-3,-3.5258036E-2,3.1715218E-2,-6.0325928E-2,1.0050452E-1,8.750326E-3,1.912316E-2,-4.4723097E-2,4.803067E-2,-2.5402118E-2,9.254244E-2,1.6854335E-2,-3.272714E-2,2.8320381E-2],"categories":[],"categories_nodes":[],"categories_segments":[],"categories_sizes":[],"default_left":[0,0,0,0,0,0,0,0,0,0,0,0,0,0,0,0,0,0,0,0,0,0,0,0,0,0,0,0,0,0,0,0,0,0,0,0,0,0,0,0,0,0,0,0,0,0,0,0,0,0,0,0,0,0,0,0,0,0,0,0,0,0,0,0,0,0,0,0,0,0,0,0,0,0,0,0,0,0,0,0,0,0,0],"id":9,"left_children":[1,3,5,7,9,11,13,15,17,19,21,23,25,-1,-1,27,29,-1,31,33,35,37,39,41,43,45,47,49,51,53,55,-1,-1,-1,57,59,61,63,65,67,69,71,73,75,-1,77,79,-1,81,-1,-1,-1,-1,-1,-1,-1,-1,-1,-1,-1,-1,-1,-1,-1,-1,-1,-1,-1,-1,-1,-1,-1,-1,-1,-1,-1,-1,-1,-1,-1,-1,-1,-1],"loss_changes":[8.847191E0,5.922058E0,4.099695E0,6.4404755E0,6.016144E0,5.1657047E0,2.073044E0,4.761238E0,4.2993608E0,6.8709764E0,5.859681E0,5.7352996E0,3.6573534E0,0E0,0E0,3.8637848E0,3.3958428E0,0E0,2.797044E0,2.8362427E0,3.9833918E0,4.9512243E0,9.773548E0,3.9237933E0,3.4469435E0,4.156335E0,2.0305054E0,5.0584545E0,3.7323532E0,2.3375454E0,1.7810607E0,0E0,0E0,0E0,7.2635555E-1,1.724603E0,3.4596329E0,4.0608006E0,3.1052175E0,6.026719E0,3.9153395E0,3.1259098E0,1.6788249E0,1.695827E0,0E0,3.5497909E0,3.1376762E0,0E0,1.4647279E0,0E0,0E0,0E0,0E0,0E0,0E0,0E0,0E0,0E0,0E0,0E0,0E0,0E0,0E0,0E0,0E0,0E0,0E0,0E0,0E0,0E0,0E0,0E0,0E0,0E0,0E0,0E0,0E0,0E0,0E0,0E0,0E0,0E0,0E0],"parents":[2147483647,0,0,1,1,2,2,3,3,4,4,5,5,6,6,7,7,8,8,9,9,10,10,11,11,12,12,15,15,16,16,18,18,19,19,20,20,21,21,22,22,23,23,24,24,25,25,26,26,27,27,28,28,29,29,30,30,34,34,35,35,36,36,37,37,38,38,39,39,40,40,41,41,42,42,43,43,45,45,46,46,48,48],"right_children":[2,4,6,8,10,12,14,16,18,20,22,24,26,-1,-1,28,30,-1,32,34,36,38,40,42,44,46,48,50,52,54,56,-1,-1,-1,58,60,62,64,66,68,70,72,74,76,-1,78,80,-1,82,-1,-1,-1,-1,-1,-1,-1,-1,-1,-1,-1,-1,-1,-1,-1,-1,-1,-1,-1,-1,-1,-1,-1,-1,-1,-1,-1,-1,-1,-1,-1,-1,-1,-1],"split_conditions":[2.146102E0,3.3387822E-1,1.948634E0,3.9498708E0,-2.4352725E0,4.9110505E-1,-2.1946122E-1,2.468095E0,9.8600817E-1,-2.1696525E0,-8.482902E-1,1.8438169E0,1.2753608E0,2.0043993E-2,-5.813679E-2,-9.622692E-1,1.8740302E0,1.1604573E-1,3.4639316E0,-4.7829118E-1,-3.5015464E-1,1.978525E0,-4.88577E-1,1.3125093E0,1.5087022E0,-6.880716E-2,1.6575439E0,-2.072916E0,-9.1267955E-1,1.1496819E0,1.3374196E0,-4.2092845E-2,6.0144592E-2,2.8203532E-2,2.0388481E-1,-1.1406443E0,5.8437085E-1,-1.2702576E0,-1.721256E0,-4.5414463E-1,1.6907328E0,-1.7134115E-2,2.0387495E0,-9.363456E-1,5.9158195E-2,-5.701093E-1,1.1306709E0,6.1880816E-2,2.713731E0,-3.1530205E-2,-8.185008E-3,-2.9787807E-2,-1.623313E-2,-6.8624853E-3,7.0940144E-2,-4.8729114E-2,2.5205731E-2,-6.682467E-2,-5.5234176E-3,3.7757058E-2,-4.5258094E-2,7.923168E-2,-0E0,-1.0690096E-2,-3.572211E-2,-1.30393375E-2,6.7329556E-2,3.1480085E-2,-5.154596E-3,-8.485296E-3,-3.5258036E-2,3.1715218E-2,-6.0325928E-2,1.0050452E-1,8.750326E-3,1.912316E-2,-4.4723097E-2,4.803067E-2,-2.5402118E-2,9.254244E-2,1.6854335E-2,-3.272714E-2,2.8320381E-2],"split_indices":[23,4,26,34,10,37,31,18,23,16,18,21,12,0,0,5,33,0,37,38,30,29,18,1,33,26,17,16,30,27,36,0,0,0,30,33,37,23,2,2,41,15,18,5,0,26,26,0,37,0,0,0,0,0,0,0,0,0,0,0,0,0,0,0,0,0,0,0,0,0,0,0,0,0,0,0,0,0,0,0,0,0,0],"split_type":[0,0,0,0,0,0,0,0,0,0,0,0,0,0,0,0,0,0,0,0,0,0,0,0,0,0,0,0,0,0,0,0,0,0,0,0,0,0,0,0,0,0,0,0,0,0,0,0,0,0,0,0,0,0,0,0,0,0,0,0,0,0,0,0,0,0,0,0,0,0,0,0,0,0,0,0,0,0,0,0,0,0,0],"sum_hessian":[6.411834E3,6.2590527E3,1.5278111E2,4.3311006E3,1.9279521E3,1.3797331E2,1.48078E1,4.317327E3,1.3773261E1,5.6987812E1,1.8709642E3,6.320713E1,7.476618E1,3.9340363E0,1.0873764E1,4.288133E3,2.9194569E1,5.0296307E0,8.74363E0,1.7404951E1,3.9582863E1,2.9068527E2,1.580279E3,2.4272306E1,3.8934822E1,5.434675E1,2.0419432E1,1.12662E3,3.1615127E3,1.79683E1,1.1226269E1,4.7973433E0,3.9462876E0,5.3881664E0,1.2016785E1,8.410783E0,3.117208E1,2.733248E2,1.736048E1,1.7941634E2,1.4008627E3,1.3783245E1,1.0489061E1,3.576359E1,3.1712303E0,2.4688572E1,2.9658175E1,3.119383E0,1.7300049E1,1.017432E2,1.0248768E3,2.2123512E2,2.9402776E3,4.7692137E0,1.3199086E1,6.4880977E0,4.7381706E0,8.917725E0,3.09906E0,3.1171331E0,5.29365E0,2.4446604E1,6.7254753E0,1.12200134E2,1.6112466E2,8.673937E0,8.6865425E0,9.927033E1,8.0145996E1,1.3444972E3,5.6365543E1,8.919719E0,4.8635263E0,7.2600694E0,3.2289915E0,3.962493E0,3.18011E1,1.3987282E1,1.070129E1,2.1244795E1,8.41338E0,1.2847951E1,4.4520984E0],"tree_param":{"num_deleted":"0","num_feature":"47","num_nodes":"83","size_leaf_vector":"1"}},{"base_weights":[2.2521234E-1,1.6572964E-1,2.528755E-1,1.455383E-1,3.574071E-1,2.65879E-1,1.313096E-1,1.8525575E-1,7.1141884E-2,6.353878E-1,2.5503203E-1,1.4808932E-1,2.8331047E-1,-7.060818E-2,2.1002182E-1,2.9095608E-1,1.2724335E-1,2.0409254E-2,2.955922E-1,-4.1500166E-2,7.4045163E-1,9.6349224E-2,4.8890513E-1,6.8514884E-1,1.15149885E-1,5.5668706E-1,2.7688923E-1,3.0889457E-1,-1.4982586E-1,1.3665175E-2,2.9046142E-1,3.5460237E-1,1.2814148E-1,3.1426245E-1,8.810758E-2,2.853123E-1,-4.8533273E-3,1.1934403E-1,4.8580155E-1,-2.0645844E-2,8.5945946E-1,4.7970787E-1,-1.3968208E-1,-1.4421895E-1,5.9352297E-1,7.8525513E-1,-1.0560774E-2,3.1645164E-1,5.738411E-2,2.580189E-1,7.728793E-1,2.9237923E-1,1.8410665E-1,5.957078E-1,-2.7308434E-1,-3.8951233E-1,-2.881568E-2,1.3865721E-1,-3.8487017E-1,3.3692223E-1,-1.4555173E-1,1.0899196E-2,4.2204086E-2,-6.489404E-4,3.9519817E-2,3.8019866E-2,-5.5686287E-3,5.6398734E-3,3.1241614E-2,-3.853874E-2,3.9776195E-2,5.0579257E-2,-1.9239221E-3,3.255255E-2,-3.1970594E-2,-1.9560205E-2,5.873812E-2,3.090634E-2,-3.6533963E-2,1.1925761E-1,7.067728E-2,-3.7908338E-2,5.949491E-2,-3.060641E-2,8.34262E-3,-5.9547283E-2,3.061009E-2,5.397956E-3,7.064047E-2,9.087286E-2,-0E0,1.028616E-1,2.62393E-2,1.4327015E-2,-1.0038016E-2,7.310762E-2,-3.369518E-4,5.0611824E-2,1.04536496E-1,2.9695822E-2,-3.0084697E-3,1.0238448E-2,3.3483975E-2,-6.520897E-3,8.9340895E-2,1.2015887E-2,-5.8662977E-2,3.0664946E-3,-5.608362E-2,1.8498048E-2,-3.1832885E-2,-2.1070492E-2,3.04847E-2,4.3039974E-2,-6.1616402E-2,6.776253E-2,2.7109597E-2,6.805941E-2,-3.4418043E-2],"categories":[],"categories_nodes":[],"categories_segments":[],"categories_sizes":[],"default_left":[0,0,0,0,0,0,0,0,0,0,0,0,0,0,0,0,0,0,0,0,0,0,0,0,0,0,0,0,0,0,0,0,0,0,0,0,0,0,0,0,0,0,0,0,0,0,0,0,0,0,0,0,0,0,0,0,0,0,0,0,0,0,0,0,0,0,0,0,0,0,0,0,0,0,0,0,0,0,0,0,0,0,0,0,0,0,0,0,0,0,0,0,0,0,0,0,0,0,0,0,0,0,0,0,0,0,0,0,0,0,0,0,0,0,0,0,0,0,0],"id":10,"left_children":[1,3,5,7,9,11,13,15,17,19,21,23,25,27,29,31,33,35,37,-1,39,41,43,45,47,49,51,53,55,57,59,61,63,65,67,69,71,73,75,77,79,81,83,85,87,89,-1,91,93,95,97,99,101,103,105,107,109,111,113,115,117,-1,-1,-1,-1,-1,-1,-1,-1,-1,-1,-1,-1,-1,-1,-1,-1,-1,-1,-1,-1,-1,-1,-1,-1,-1,-1,-1,-1,-1,-1,-1,-1,-1,-1,-1,-1,-1,-1,-1,-1,-1,-1,-1,-1,-1,-1,-1,-1,-1,-1,-1,-1,-1,-1,-1,-1,-1,-1],"loss_changes":[1.1060303E1,8.233734E0,7.2280273E0,5.7254257E0,5.55752E0,8.480072E0,7.166772E0,7.7106133E0,7.7222557E0,6.299593E0,5.5021467E0,9.404361E0,6.138031E0,3.8292446E0,5.0792837E0,4.556507E0,5.9524927E0,3.75878E0,4.078665E0,0E0,4.588707E0,8.382564E0,4.1431913E0,2.5939617E0,5.883381E0,4.9924927E0,5.001953E0,3.855558E0,3.0049412E0,4.7858033E0,4.7123795E0,5.228157E0,4.6481724E0,3.505497E0,4.796606E0,3.8409863E0,3.7031372E0,6.131978E0,4.2804756E0,9.7790664E-1,1.1531258E0,3.737155E0,2.1733646E0,2.0928986E0,3.0724373E0,2.6808033E0,0E0,3.961832E0,5.4176426E0,4.542694E0,2.7230492E0,4.5247498E0,6.224474E0,3.1160293E0,1.0801609E0,2.5907621E0,4.492741E0,4.348242E0,4.596998E0,4.3793354E0,3.9039178E0,0E0,0E0,0E0,0E0,0E0,0E0,0E0,0E0,0E0,0E0,0E0,0E0,0E0,0E0,0E0,0E0,0E0,0E0,0E0,0E0,0E0,0E0,0E0,0E0,0E0,0E0,0E0,0E0,0E0,0E0,0E0,0E0,0E0,0E0,0E0,0E0,0E0,0E0,0E0,0E0,0E0,0E0,0E0,0E0,0E0,0E0,0E0,0E0,0E0,0E0,0E0,0E0,0E0,0E0,0E0,0E0,0E0,0E0],"parents":[2147483647,0,0,1,1,2,2,3,3,4,4,5,5,6,6,7,7,8,8,9,9,10,10,11,11,12,12,13,13,14,14,15,15,16,16,17,17,18,18,20,20,21,21,22,22,23,23,24,24,25,25,26,26,27,27,28,28,29,29,30,30,31,31,32,32,33,33,34,34,35,35,36,36,37,37,38,38,39,39,40,40,41,41,42,42,43,43,44,44,45,45,47,47,48,48,49,49,50,50,51,51,52,52,53,53,54,54,55,55,56,56,57,57,58,58,59,59,60,60],"right_children":[2,4,6,8,10,12,14,16,18,20,22,24,26,28,30,32,34,36,38,-1,40,42,44,46,48,50,52,54,56,58,60,62,64,66,68,70,72,74,76,78,80,82,84,86,88,90,-1,92,94,96,98,100,102,104,106,108,110,112,114,116,118,-1,-1,-1,-1,-1,-1,-1,-1,-1,-1,-1,-1,-1,-1,-1,-1,-1,-1,-1,-1,-1,-1,-1,-1,-1,-1,-1,-1,-1,-1,-1,-1,-1,-1,-1,-1,-1,-1,-1,-1,-1,-1,-1,-1,-1,-1,-1,-1,-1,-1,-1,-1,-1,-1,-1,-1,-1,-1],"split_conditions":[-1.9905376E-1,1.3540701E0,2.1537602E0,-1.3711529E0,-1.9323447E0,-1.8207644E0,-6.916926E-1,-3.8048998E-1,4.2408314E-1,-2.6446106E0,-1.2982221E0,-1.6194327E0,-2.139712E0,1.4887378E0,1.7586596E0,4.430997E-1,-1.321283E0,-7.93841E-1,1.4889294E0,-4.1500166E-2,-6.714816E-1,1.7638088E0,-1.02346E0,1.3534704E0,4.1554183E-1,6.5029524E-2,1.1583189E0,-5.544723E-1,-3.585808E-1,1.8983892E0,1.6714445E0,-5.4097384E-1,9.313557E-1,-8.84492E-1,-5.120685E-1,-8.848299E-1,-1.909849E0,1.4869191E-1,-5.676021E-1,2.045384E0,-9.724339E-1,-5.007838E-1,1.0784948E0,-1.476427E0,-6.178879E-1,-2.0320801E-1,-1.0560774E-2,-2.1353757E0,-9.072628E-2,6.359518E-1,2.0872018E-1,2.9991786E0,2.3663719E0,1.0685933E-1,-1.192831E0,1.3059205E0,1.6932974E0,-2.7314064E-1,-3.9663208E-1,-7.777943E-1,-3.9666083E-1,1.0899196E-2,4.2204086E-2,-6.489404E-4,3.9519817E-2,3.8019866E-2,-5.5686287E-3,5.6398734E-3,3.1241614E-2,-3.853874E-2,3.9776195E-2,5.0579257E-2,-1.9239221E-3,3.255255E-2,-3.1970594E-2,-1.9560205E-2,5.873812E-2,3.090634E-2,-3.6533963E-2,1.1925761E-1,7.067728E-2,-3.7908338E-2,5.949491E-2,-3.060641E-2,8.34262E-3,-5.9547283E-2,3.061009E-2,5.397956E-3,7.064047E-2,9.087286E-2,-0E0,1.028616E-1,2.62393E-2,1.4327015E-2,-1.0038016E-2,7.310762E-2,-3.369518E-4,5.0611824E-2,1.04536496E-1,2.9695822E-2,-3.0084697E-3,1.0238448E-2,3.3483975E-2,-6.520897E-3,8.9340895E-2,1.2015887E-2,-5.8662977E-2,3.0664946E-3,-5.608362E-2,1.8498048E-2,-3.1832885E-2,-2.1070492E-2,3.04847E-2,4.3039974E-2,-6.1616402E-2,6.776253E-2,2.7109597E-2,6.805941E-2,-3.4418043E-2],"split_indices":[34,28,16,16,16,16,6,31,11,11,16,22,28,34,10,26,28,31,35,0,38,28,41,33,34,13,22,2,3,35,29,6,29,9,25,32,4,22,31,28,41,18,12,25,32,0,0,12,32,34,39,9,33,37,40,9,20,11,0,41,6,0,0,0,0,0,0,0,0,0,0,0,0,0,0,0,0,0,0,0,0,0,0,0,0,0,0,0,0,0,0,0,0,0,0,0,0,0,0,0,0,0,0,0,0,0,0,0,0,0,0,0,0,0,0,0,0,0,0],"split_type":[0,0,0,0,0,0,0,0,0,0,0,0,0,0,0,0,0,0,0,0,0,0,0,0,0,0,0,0,0,0,0,0,0,0,0,0,0,0,0,0,0,0,0,0,0,0,0,0,0,0,0,0,0,0,0,0,0,0,0,0,0,0,0,0,0,0,0,0,0,0,0,0,0,0,0,0,0,0,0,0,0,0,0,0,0,0,0,0,0,0,0,0,0,0,0,0,0,0,0,0,0,0,0,0,0,0,0,0,0,0,0,0,0,0,0,0,0,0,0],"sum_hessian":[6.7715425E3,2.1528926E3,4.61865E3,1.9497831E3,2.0310953E2,4.1705327E3,4.4811737E2,1.2693113E3,6.8047186E2,5.3003895E1,1.5010564E2,5.3959045E2,3.6309421E3,1.253623E2,3.2275507E2,4.4775293E2,8.215583E2,5.5627356E2,1.2419836E2,4.4647884E0,4.8539104E1,9.052441E1,5.9581226E1,2.9862509E1,5.0972794E2,8.100437E1,3.5499377E3,2.093047E1,1.0443183E2,9.4496925E1,2.2825813E2,3.2062457E2,1.2712836E2,1.4051079E2,6.8104755E2,4.7879055E1,5.0839447E2,6.558262E1,5.8615734E1,6.5615973E0,4.197751E1,3.4264225E1,5.626018E1,8.259878E0,5.1321346E1,2.6625282E1,3.2372258E0,1.1227242E2,3.974555E2,3.5129387E1,4.587499E1,3.0392996E3,5.106383E2,1.4120022E1,6.810448E0,3.4014214E1,7.041762E1,7.2623215E1,2.1873707E1,2.066902E2,2.1567928E1,6.9953514E1,2.5067105E2,8.491934E1,4.2209015E1,1.1946167E2,2.1049126E1,5.9818396E2,8.286359E1,6.3985825E0,4.1480473E1,1.280361E1,4.9559085E2,4.495685E1,2.0625774E1,7.356662E0,5.1259075E1,3.2582476E0,3.3033497E0,1.0847017E1,3.113049E1,3.6803787E0,3.0583849E1,3.2270782E1,2.39894E1,4.0755787E0,4.1843E0,9.288575E0,4.2032772E1,2.2874495E1,3.7507885E0,6.5186496E0,1.0575378E2,2.578235E2,1.3963202E2,1.1999154E1,2.3130232E1,2.4810316E1,2.1064672E1,2.9971296E3,4.2169853E1,3.3263693E2,1.7800137E2,4.5232196E0,9.596802E0,3.1533778E0,3.6570706E0,9.920701E0,2.4093513E1,4.0514565E1,2.990305E1,2.313001E1,4.9493206E1,4.5483594E0,1.7325348E1,3.1716885E1,1.7497333E2,3.6125448E0,1.7955383E1],"tree_param":{"num_deleted":"0","num_feature":"47","num_nodes":"119","size_leaf_vector":"1"}},{"base_weights":[-1.0964594E-1,-3.2147035E-2,-1.23786405E-1,-3.875253E-2,8.5097855E-1,-9.191581E-2,-1.597984E-1,2.6616573E-2,-9.711153E-2,3.6548093E-2,1.10876046E-1,-8.013829E-2,-3.1179756E-1,-2.1735093E-1,-1.2655962E-1,5.682382E-1,8.201993E-3,-1.7354989E-1,-1.2155178E-2,-9.394639E-2,1.0467793E-1,1.9112869E-1,-3.61991E-1,-2.2590253E-1,5.025935E-1,-2.0522559E-1,-8.444123E-2,1.9143814E-1,9.901174E-2,2.0860589E-1,-4.0302705E-2,-1.9710699E-1,4.9859932E-1,-1.3336614E-1,2.344027E-1,-4.859663E-2,-1.3673995E-1,-3.8005954E-1,1.5929057E-1,-3.8499113E-2,5.093523E-1,-3.8409495E-1,4.077879E-2,4.247689E-1,-2.323777E-1,9.749638E-2,-7.4009807E-3,-1.2223181E-1,-2.937029E-1,-2.11254E-1,-4.768811E-2,7.45784E-2,-2.513809E-2,3.2540668E-2,-2.8478757E-2,3.345046E-2,-7.4741542E-3,-1.0786409E-2,-3.3670966E-2,-1.7169997E-2,1.04087904E-1,-4.9140446E-2,-8.322365E-3,7.1690686E-2,5.747355E-3,7.024646E-3,-9.5583415E-3,3.4045693E-2,-1.4488542E-2,-5.5966914E-2,4.079808E-2,-2.1749309E-3,3.0870765E-2,-1.2438417E-3,9.84199E-2,-6.0647983E-2,-3.1035393E-2,7.665942E-2,-9.172929E-3,-5.520314E-2,-2.180758E-2,5.955834E-2,-1.3660148E-2,-3.6265004E-2,-1.0944033E-2,2.0042809E-2,-2.555259E-2,9.087963E-3,-8.598982E-3],"categories":[],"categories_nodes":[],"categories_segments":[],"categories_sizes":[],"default_left":[0,0,0,0,0,0,0,0,0,0,0,0,0,0,0,0,0,0,0,0,0,0,0,0,0,0,0,0,0,0,0,0,0,0,0,0,0,0,0,0,0,0,0,0,0,0,0,0,0,0,0,0,0,0,0,0,0,0,0,0,0,0,0,0,0,0,0,0,0,0,0,0,0,0,0,0,0,0,0,0,0,0,0,0,0,0,0,0,0],"id":11,"left_children":[1,3,5,7,9,11,13,15,17,-1,-1,19,21,23,25,27,29,31,33,35,37,39,41,43,45,47,49,51,-1,53,55,57,59,61,63,65,67,69,71,-1,73,75,-1,77,79,-1,-1,81,83,85,87,-1,-1,-1,-1,-1,-1,-1,-1,-1,-1,-1,-1,-1,-1,-1,-1,-1,-1,-1,-1,-1,-1,-1,-1,-1,-1,-1,-1,-1,-1,-1,-1,-1,-1,-1,-1,-1,-1],"loss_changes":[6.970337E0,5.707457E0,6.1495285E0,3.7497778E0,3.5549212E-1,7.3544273E0,4.776108E0,4.54963E0,3.3496804E0,0E0,0E0,6.952236E0,3.743145E0,5.7708817E0,5.2770042E0,2.0785499E0,4.3838925E0,4.3828926E0,7.4178305E0,4.8900127E0,5.044962E0,2.7054513E0,2.4044132E0,3.9277115E0,3.1616557E0,4.025261E0,4.8528438E0,2.5183997E0,0E0,5.164753E0,4.6646504E0,3.2099638E0,3.6703293E0,2.8968582E0,6.852852E0,6.8905945E0,5.0882893E0,2.9694703E0,4.6572304E0,0E0,2.4175708E0,1.8387299E0,0E0,1.7623256E0,3.9407578E0,0E0,0E0,3.0328507E0,3.332264E0,4.3360033E0,4.3335776E0,0E0,0E0,0E0,0E0,0E0,0E0,0E0,0E0,0E0,0E0,0E0,0E0,0E0,0E0,0E0,0E0,0E0,0E0,0E0,0E0,0E0,0E0,0E0,0E0,0E0,0E0,0E0,0E0,0E0,0E0,0E0,0E0,0E0,0E0,0E0,0E0,0E0,0E0],"parents":[2147483647,0,0,1,1,2,2,3,3,4,4,5,5,6,6,7,7,8,8,11,11,12,12,13,13,14,14,15,15,16,16,17,17,18,18,19,19,20,20,21,21,22,22,23,23,24,24,25,25,26,26,27,27,29,29,30,30,31,31,32,32,33,33,34,34,35,35,36,36,37,37,38,38,40,40,41,41,43,43,44,44,47,47,48,48,49,49,50,50],"right_children":[2,4,6,8,10,12,14,16,18,-1,-1,20,22,24,26,28,30,32,34,36,38,40,42,44,46,48,50,52,-1,54,56,58,60,62,64,66,68,70,72,-1,74,76,-1,78,80,-1,-1,82,84,86,88,-1,-1,-1,-1,-1,-1,-1,-1,-1,-1,-1,-1,-1,-1,-1,-1,-1,-1,-1,-1,-1,-1,-1,-1,-1,-1,-1,-1,-1,-1,-1,-1,-1,-1,-1,-1,-1,-1],"split_conditions":[-1.10344E0,2.5443082E0,-1.1229164E-1,5.5475676E-1,-2.4138187E-1,2.146102E0,3.3248594E-1,-9.4845307E-1,9.4342357E-1,3.6548093E-2,1.10876046E-1,-1.554317E-1,-2.1489847E0,2.6583974E0,-6.822179E-1,-2.8913108E-1,7.23272E-1,1.9046777E0,-1.1840457E0,2.0884965E-2,-1.5262384E0,-1.4108899E0,1.5389544E0,-3.944369E-1,-2.3470606E-1,8.129618E-1,-1.0021017E0,-1.0482934E0,9.901174E-2,6.552084E-1,-1.9902513E0,1.0191516E-1,-1.7707535E0,-2.3284128E0,-1.2462518E0,-1.4108899E0,-1.1371585E0,1.8567061E0,-1.1256185E0,-3.8499113E-2,-2.115224E-1,-4.1612482E-1,4.077879E-2,1.2125404E0,-7.22888E-1,9.749638E-2,-7.4009807E-3,-1.4971568E-1,1.7619356E0,-9.019024E-1,3.8412276E-1,7.45784E-2,-2.513809E-2,3.2540668E-2,-2.8478757E-2,3.345046E-2,-7.4741542E-3,-1.0786409E-2,-3.3670966E-2,-1.7169997E-2,1.04087904E-1,-4.9140446E-2,-8.322365E-3,7.1690686E-2,5.747355E-3,7.024646E-3,-9.5583415E-3,3.4045693E-2,-1.4488542E-2,-5.5966914E-2,4.079808E-2,-2.1749309E-3,3.0870765E-2,-1.2438417E-3,9.84199E-2,-6.0647983E-2,-3.1035393E-2,7.665942E-2,-9.172929E-3,-5.520314E-2,-2.180758E-2,5.955834E-2,-1.3660148E-2,-3.6265004E-2,-1.0944033E-2,2.0042809E-2,-2.555259E-2,9.087963E-3,-8.598982E-3],"split_indices":[17,16,13,40,39,23,15,32,12,0,0,8,41,14,16,41,35,39,23,0,29,25,36,9,31,14,35,41,0,41,16,35,14,16,21,25,30,27,12,0,32,31,0,11,33,0,0,19,15,30,16,0,0,0,0,0,0,0,0,0,0,0,0,0,0,0,0,0,0,0,0,0,0,0,0,0,0,0,0,0,0,0,0,0,0,0,0,0,0],"split_type":[0,0,0,0,0,0,0,0,0,0,0,0,0,0,0,0,0,0,0,0,0,0,0,0,0,0,0,0,0,0,0,0,0,0,0,0,0,0,0,0,0,0,0,0,0,0,0,0,0,0,0,0,0,0,0,0,0,0,0,0,0,0,0,0,0,0,0,0,0,0,0,0,0,0,0,0,0,0,0,0,0,0,0,0,0,0,0,0,0],"sum_hessian":[6.3774126E3,9.8566656E2,5.391746E3,9.794103E2,6.2563214E0,2.8637014E3,2.5280444E3,4.6140808E2,5.180022E2,3.1428678E0,3.1134536E0,2.7198381E3,1.438634E2,9.223903E2,1.6056542E3,1.4011259E1,4.4739682E2,2.7150198E2,2.4650023E2,2.5317195E3,1.8811867E2,1.2619442E1,1.3124396E2,9.123781E2,1.0012227E1,5.5772485E2,1.0479293E3,8.294163E0,5.717096E0,8.694254E1,3.6045425E2,2.6313528E2,8.366682E0,1.6583723E2,8.0663E1,1.2313206E3,1.3003988E3,1.82594E1,1.6985927E2,4.3037577E0,8.315685E0,1.2819385E2,3.0501103E0,8.201362E0,9.0417676E2,5.219124E0,4.7931037E0,2.8959225E2,2.6813263E2,2.337906E2,8.141387E2,3.479714E0,4.8144493E0,7.0739555E1,1.620299E1,2.9355343E1,3.310989E2,1.6203876E2,1.0109653E2,3.9648232E0,4.4018583E0,1.9046045E1,1.4679118E2,2.0671778E1,5.9991222E1,3.4814316E2,8.831774E2,2.0933737E1,1.2794651E3,1.5209544E1,3.0498548E0,7.68861E1,9.297317E1,4.3256288E0,3.990056E0,2.9786E1,9.8407845E1,4.7603173E0,3.4410439E0,3.6812428E1,8.673643E2,4.7530766E0,2.8483917E2,1.9402264E2,7.410998E1,2.2138626E1,2.1165198E2,1.75442E2,6.3869666E2],"tree_param":{"num_deleted":"0","num_feature":"47","num_nodes":"89","size_leaf_vector":"1"}},{"base_weights":[-1.2272974E-1,-1.3586822E-1,4.487347E-2,-1.4303043E-1,1.0142802E-2,-9.329724E-3,2.3251279E-1,-1.447944E-1,3.3335415E-1,-3.1707656E-1,7.12545E-2,4.8558444E-1,-3.7018776E-2,-3.3591142E-1,3.7284607E-1,-1.3712281E-1,-2.5825706E-1,-1.7353573E-1,6.362788E-1,4.195652E-2,-3.8499576E-1,2.8164253E-1,-9.638511E-3,6.635643E-1,-2.9782072E-2,-7.363972E-2,3.2428303E-1,-6.684316E-2,-6.3202865E-3,4.5857885E-1,-5.0117828E-2,-1.4386956E-1,-2.4107218E-2,-4.3460885E-1,-1.8205047E-1,1.7966373E-2,-5.5013683E-2,-5.474389E-3,8.581875E-1,5.5445926E-3,-5.0698036E-1,-4.395209E-1,4.011428E-1,-1.0709878E-1,2.5121298E-1,-0E0,8.9489716E-1,5.4563344E-1,-9.8585516E-2,-8.058437E-2,8.00263E-1,-5.035031E-2,7.102587E-2,5.3657544E-1,-1.3222733E-1,-1.7932931E-2,-1.1582127E-2,-4.5274966E-3,6.3252635E-2,1.7358016E-2,-4.911982E-2,7.5922906E-3,-2.6375636E-2,1.7673155E-2,1.1001904E-1,5.132876E-2,-4.2235415E-2,-5.540957E-2,-2.859652E-3,-2.57841E-3,-6.0861927E-2,4.7776718E-2,-3.998604E-2,7.502827E-2,-1.4855872E-2,3.7343007E-2,-4.6910618E-2,3.5801273E-2,1.2137653E-1,8.583294E-2,4.8590736E-3,-0E0,-2.7655354E-2,4.982718E-2,-5.646652E-2,2.5366152E-2,1.107311E-1,-2.6569912E-2,6.035188E-2,-5.767041E-2,3.16187E-2],"categories":[],"categories_nodes":[],"categories_segments":[],"categories_sizes":[],"default_left":[0,0,0,0,0,0,0,0,0,0,0,0,0,0,0,0,0,0,0,0,0,0,0,0,0,0,0,0,0,0,0,0,0,0,0,0,0,0,0,0,0,0,0,0,0,0,0,0,0,0,0,0,0,0,0,0,0,0,0,0,0,0,0,0,0,0,0,0,0,0,0,0,0,0,0,0,0,0,0,0,0,0,0,0,0,0,0,0,0,0,0],"id":12,"left_children":[1,3,5,7,9,11,13,15,17,19,21,23,25,27,29,31,33,35,37,-1,39,41,43,45,-1,47,49,-1,51,53,-1,55,57,59,61,-1,-1,-1,63,65,67,69,71,73,75,-1,77,79,81,83,85,-1,-1,87,89,-1,-1,-1,-1,-1,-1,-1,-1,-1,-1,-1,-1,-1,-1,-1,-1,-1,-1,-1,-1,-1,-1,-1,-1,-1,-1,-1,-1,-1,-1,-1,-1,-1,-1,-1,-1],"loss_changes":[1.4055626E1,6.198723E0,4.7404957E0,4.7668457E0,5.532846E0,4.9107184E0,8.454935E0,4.8149185E0,3.364602E0,2.3336477E0,4.0174594E0,2.8791695E0,4.528409E0,2.2354455E0,6.5442686E0,3.994156E0,4.6142464E0,1.2634734E0,2.184372E0,0E0,1.9803953E0,5.8124843E0,4.3306727E0,2.4946752E0,0E0,4.827429E0,6.1951313E0,0E0,4.517014E0,3.678917E0,0E0,4.8900757E0,4.1207232E0,3.7529755E0,5.290908E0,0E0,0E0,0E0,1.380342E0,2.4905164E0,6.253896E-1,5.967889E-1,3.68402E0,4.4816976E0,4.234626E0,0E0,1.4355183E0,1.7444053E0,5.28842E0,5.2712636E0,2.0427294E0,0E0,0E0,3.8858185E0,2.138008E0,0E0,0E0,0E0,0E0,0E0,0E0,0E0,0E0,0E0,0E0,0E0,0E0,0E0,0E0,0E0,0E0,0E0,0E0,0E0,0E0,0E0,0E0,0E0,0E0,0E0,0E0,0E0,0E0,0E0,0E0,0E0,0E0,0E0,0E0,0E0,0E0],"parents":[2147483647,0,0,1,1,2,2,3,3,4,4,5,5,6,6,7,7,8,8,9,9,10,10,11,11,12,12,13,13,14,14,15,15,16,16,17,17,18,18,20,20,21,21,22,22,23,23,25,25,26,26,28,28,29,29,31,31,32,32,33,33,34,34,38,38,39,39,40,40,41,41,42,42,43,43,44,44,46,46,47,47,48,48,49,49,50,50,53,53,54,54],"right_children":[2,4,6,8,10,12,14,16,18,20,22,24,26,28,30,32,34,36,38,-1,40,42,44,46,-1,48,50,-1,52,54,-1,56,58,60,62,-1,-1,-1,64,66,68,70,72,74,76,-1,78,80,82,84,86,-1,-1,88,90,-1,-1,-1,-1,-1,-1,-1,-1,-1,-1,-1,-1,-1,-1,-1,-1,-1,-1,-1,-1,-1,-1,-1,-1,-1,-1,-1,-1,-1,-1,-1,-1,-1,-1,-1,-1],"split_conditions":[1.5641216E0,2.4377155E0,2.2436047E0,3.9498708E0,-2.830558E-1,5.4955846E-1,3.7214923E-1,1.788169E0,-6.544763E-1,-2.1910648E0,2.5544608E0,1.091465E0,3.8412276E-1,-2.1775255E-1,4.4862094E0,2.286988E0,6.2925506E-1,7.101698E-1,6.3379955E-1,4.195652E-2,-1.0897989E0,1.3242517E0,2.6974058E0,-1.8910166E0,-2.9782072E-2,-2.2576926E0,4.05627E-1,-6.684316E-2,-1.7651197E0,1.5023987E0,-5.0117828E-2,-2.3933737E-1,2.8353055E0,3.1652164E-1,1.5571327E0,1.7966373E-2,-5.5013683E-2,-5.474389E-3,-2.7676928E0,1.4333845E0,7.0781785E-1,-5.389971E-1,2.3735864E0,4.0211326E-1,1.4184798E0,-0E0,-8.4393257E-1,1.4184798E0,5.059263E-1,1.1423388E0,1.0773623E0,-5.035031E-2,7.102587E-2,-8.101644E-1,-1.928026E0,-1.7932931E-2,-1.1582127E-2,-4.5274966E-3,6.3252635E-2,1.7358016E-2,-4.911982E-2,7.5922906E-3,-2.6375636E-2,1.7673155E-2,1.1001904E-1,5.132876E-2,-4.2235415E-2,-5.540957E-2,-2.859652E-3,-2.57841E-3,-6.0861927E-2,4.7776718E-2,-3.998604E-2,7.502827E-2,-1.4855872E-2,3.7343007E-2,-4.6910618E-2,3.5801273E-2,1.2137653E-1,8.583294E-2,4.8590736E-3,-0E0,-2.7655354E-2,4.982718E-2,-5.646652E-2,2.5366152E-2,1.107311E-1,-2.6569912E-2,6.035188E-2,-5.767041E-2,3.16187E-2],"split_indices":[22,11,22,34,16,17,0,36,11,40,11,16,16,40,32,34,21,40,1,0,16,13,35,16,0,25,31,0,11,12,0,0,29,22,34,0,0,0,25,25,32,41,5,37,32,0,29,32,32,18,18,0,0,5,11,0,0,0,0,0,0,0,0,0,0,0,0,0,0,0,0,0,0,0,0,0,0,0,0,0,0,0,0,0,0,0,0,0,0,0,0],"split_type":[0,0,0,0,0,0,0,0,0,0,0,0,0,0,0,0,0,0,0,0,0,0,0,0,0,0,0,0,0,0,0,0,0,0,0,0,0,0,0,0,0,0,0,0,0,0,0,0,0,0,0,0,0,0,0,0,0,0,0,0,0,0,0,0,0,0,0,0,0,0,0,0,0,0,0,0,0,0,0,0,0,0,0,0,0,0,0,0,0,0,0],"sum_hessian":[6.3750703E3,5.9123823E3,4.626879E2,5.636598E3,2.757842E2,3.593113E2,1.0337659E2,5.6167065E3,1.9891714E1,4.2483536E1,2.3330069E2,1.7969837E1,3.4134146E2,2.0051426E1,8.332516E1,5.2638877E3,3.528191E2,7.4771185E0,1.2414595E1,3.0250058E0,3.945853E1,6.444514E1,1.6885555E2,1.4871776E1,3.0980608E0,3.1090195E2,3.0439539E1,9.318572E0,1.0732854E1,7.641898E1,6.9061785E0,4.9662563E3,2.976312E2,1.04644066E2,2.4817502E2,3.9912663E0,3.4858525E0,3.0912201E0,9.323375E0,9.423489E0,3.0035042E1,8.661242E0,5.5783894E1,1.23635284E2,4.522027E1,4.0301013E0,1.0841675E1,1.1075439E1,2.998265E2,1.6783846E1,1.3655694E1,6.594386E0,4.138468E0,6.773752E1,8.681463E0,2.1893884E3,2.7768677E3,2.8938568E2,8.24552E0,8.581426E0,9.6062645E1,5.9418255E1,1.8875676E2,3.0050263E0,6.3183484E0,4.3252773E0,5.098212E0,2.7007784E1,3.0272584E0,3.0188372E0,5.6424046E0,5.1395733E1,4.3881583E0,4.8029485E0,1.1883234E2,3.919109E1,6.029176E0,4.9476275E0,5.8940473E0,6.2287745E0,4.8466644E0,1.9345222E2,1.06374275E2,7.536239E0,9.247606E0,5.68578E0,7.9699135E0,4.8731413E0,6.2864376E1,4.328191E0,4.353273E0],"tree_param":{"num_deleted":"0","num_feature":"47","num_nodes":"91","size_leaf_vector":"1"}},{"base_weights":[2.0537552E-1,-4.7656726E-2,2.083703E-1,4.4507352E-1,-1.890388E-1,4.7260952E-1,2.0455638E-1,6.5025127E-1,-3.5421934E-2,-2.7269724E-1,4.188755E-1,5.9184206E-1,1.2457604E-1,1.5837604E-1,2.2282647E-1,5.0186063E-3,1.0249853E-1,-4.6583885E-1,-6.894082E-2,-9.375211E-3,8.035129E-2,-1.2030554E-2,6.9917446E-1,-2.8835136E-1,5.626729E-1,2.3374571E-1,1.1462482E-1,2.524043E-1,1.6488945E-1,-9.936913E-3,-5.5436945E-1,1.6848701E-1,-3.1719732E-1,3.7403205E-1,-5.973667E-2,9.2160577E-1,4.8628375E-1,-6.583785E-2,6.320646E-2,9.860955E-2,1.0228268E-1,3.6756915E-1,1.4114633E-1,9.124847E-2,3.2602417E-1,-1.1113187E-1,2.6038337E-1,2.5794852E-1,1.03389636E-1,-6.624321E-2,-1.5914539E-2,4.2432528E-2,-4.0728483E-2,5.1720307E-4,-6.5515086E-2,7.841587E-2,-1.0248772E-2,9.881355E-2,2.9494185E-2,9.273548E-2,2.5723074E-2,-1.7278524E-2,3.3597365E-2,-3.270055E-2,5.220331E-2,4.032419E-2,-2.0867243E-2,6.7396364E-3,3.7707213E-2,4.969618E-3,2.0115968E-2,-3.469138E-3,4.4379756E-2,1.5614624E-2,-4.6180025E-2,2.48156E-2,4.5614086E-2,4.3107823E-2,1.829624E-2,1.2394405E-2,-1.9221539E-2],"categories":[],"categories_nodes":[],"categories_segments":[],"categories_sizes":[],"default_left":[0,0,0,0,0,0,0,0,0,0,0,0,0,0,0,0,0,0,0,0,0,0,0,0,0,0,0,0,0,0,0,0,0,0,0,0,0,0,0,0,0,0,0,0,0,0,0,0,0,0,0,0,0,0,0,0,0,0,0,0,0,0,0,0,0,0,0,0,0,0,0,0,0,0,0,0,0,0,0,0,0],"id":13,"left_children":[1,3,5,7,9,11,13,15,-1,17,19,21,23,25,27,-1,-1,29,31,-1,-1,33,35,37,39,41,43,45,47,-1,49,51,53,55,-1,57,59,-1,61,-1,63,65,67,69,71,73,75,77,79,-1,-1,-1,-1,-1,-1,-1,-1,-1,-1,-1,-1,-1,-1,-1,-1,-1,-1,-1,-1,-1,-1,-1,-1,-1,-1,-1,-1,-1,-1,-1,-1],"loss_changes":[5.258667E0,5.714839E0,6.7138367E0,3.2518487E0,3.3519897E0,3.8371983E0,5.6049194E0,3.2071257E0,0E0,2.1562185E0,1.7209142E0,4.6791687E0,4.887713E0,6.245949E0,8.173523E0,0E0,0E0,8.145318E-1,1.7863054E0,0E0,0E0,2.8575869E0,2.273323E0,1.9109792E0,2.335688E0,8.58091E0,5.9232445E0,9.287735E0,9.280094E0,0E0,7.8504324E-1,2.4349775E0,1.680916E0,1.6096872E0,0E0,7.5650597E-1,3.0003304E0,0E0,5.834292E-1,0E0,1.5388627E0,5.972744E0,7.1723633E0,4.961774E0,5.1529636E0,6.5580463E0,7.281845E0,8.275635E0,6.0032234E0,0E0,0E0,0E0,0E0,0E0,0E0,0E0,0E0,0E0,0E0,0E0,0E0,0E0,0E0,0E0,0E0,0E0,0E0,0E0,0E0,0E0,0E0,0E0,0E0,0E0,0E0,0E0,0E0,0E0,0E0,0E0,0E0],"parents":[2147483647,0,0,1,1,2,2,3,3,4,4,5,5,6,6,7,7,9,9,10,10,11,11,12,12,13,13,14,14,17,17,18,18,21,21,22,22,23,23,24,24,25,25,26,26,27,27,28,28,30,30,31,31,32,32,33,33,35,35,36,36,38,38,40,40,41,41,42,42,43,43,44,44,45,45,46,46,47,47,48,48],"right_children":[2,4,6,8,10,12,14,16,-1,18,20,22,24,26,28,-1,-1,30,32,-1,-1,34,36,38,40,42,44,46,48,-1,50,52,54,56,-1,58,60,-1,62,-1,64,66,68,70,72,74,76,78,80,-1,-1,-1,-1,-1,-1,-1,-1,-1,-1,-1,-1,-1,-1,-1,-1,-1,-1,-1,-1,-1,-1,-1,-1,-1,-1,-1,-1,-1,-1,-1,-1],"split_conditions":[-2.6887212E0,-2.4036336E0,-2.4710104E0,1.4789412E0,9.1551226E-1,1.0976633E0,-4.1987395E-1,-2.443001E0,-3.5421934E-2,2.2872303E-2,-1.0385858E0,-9.9436826E-1,1.1583189E0,-1.7762172E0,3.541531E-1,5.0186063E-3,1.0249853E-1,-1.3278627E0,-2.6381105E-1,-9.375211E-3,8.035129E-2,6.222293E-1,-1.4096054E-1,-1.8374522E0,4.9006644E-1,-3.1240293E-1,6.0805272E-2,-1.8993249E0,1.2172495E0,-9.936913E-3,7.064342E-1,-3.1110248E-1,-3.893851E-1,-1.3486007E0,-5.973667E-2,5.305708E-1,-4.0999055E-1,-6.583785E-2,1.1423388E0,9.860955E-2,1.1558827E0,2.30228E0,8.6674815E-1,8.577465E-1,-4.1994396E-1,1.6678792E-1,1.4053857E0,9.7075544E-2,1.4293491E0,-6.624321E-2,-1.5914539E-2,4.2432528E-2,-4.0728483E-2,5.1720307E-4,-6.5515086E-2,7.841587E-2,-1.0248772E-2,9.881355E-2,2.9494185E-2,9.273548E-2,2.5723074E-2,-1.7278524E-2,3.3597365E-2,-3.270055E-2,5.220331E-2,4.032419E-2,-2.0867243E-2,6.7396364E-3,3.7707213E-2,4.969618E-3,2.0115968E-2,-3.469138E-3,4.4379756E-2,1.5614624E-2,-4.6180025E-2,2.48156E-2,4.5614086E-2,4.3107823E-2,1.829624E-2,1.2394405E-2,-1.9221539E-2],"split_indices":[14,16,35,12,16,2,34,11,0,5,11,38,22,16,5,0,0,22,31,0,0,39,30,11,30,31,14,35,12,0,4,37,0,27,0,22,26,0,18,0,26,26,40,5,31,0,40,15,22,0,0,0,0,0,0,0,0,0,0,0,0,0,0,0,0,0,0,0,0,0,0,0,0,0,0,0,0,0,0,0,0],"split_type":[0,0,0,0,0,0,0,0,0,0,0,0,0,0,0,0,0,0,0,0,0,0,0,0,0,0,0,0,0,0,0,0,0,0,0,0,0,0,0,0,0,0,0,0,0,0,0,0,0,0,0,0,0,0,0,0,0,0,0,0,0,0,0,0,0,0,0,0,0,0,0,0,0,0,0,0,0,0,0,0,0],"sum_hessian":[6.9042754E3,8.019501E1,6.82408E3,1.7243704E1,6.29513E1,9.4972664E1,6.7291074E3,1.3969359E1,3.2743442E0,5.59655E1,6.985803E0,7.000265E1,2.4970018E1,1.9118268E3,4.817281E3,5.9086165E0,8.060743E0,2.7818851E1,2.8146646E1,3.2073987E0,3.7784042E0,1.0557927E1,5.9444717E1,1.2912713E1,1.2057304E1,6.997492E2,1.2120775E3,3.1857954E3,1.6314854E3,6.045534E0,2.1773317E1,1.4345445E1,1.3801203E1,6.4764757E0,4.0814514E0,2.7213215E1,3.2231503E1,6.0044827E0,6.908231E0,5.5728545E0,6.48445E0,2.8451804E2,4.152312E2,1.0931074E3,1.1897019E2,6.787495E1,3.1179207E3,6.472589E2,9.8422644E2,1.6368668E1,5.404651E0,1.0234544E1,4.110901E0,7.415988E0,6.385215E0,3.2465365E0,3.2299395E0,2.3935692E1,3.2775233E0,9.825675E0,2.2405827E1,3.7037597E0,3.204471E0,3.197258E0,3.287192E0,2.6837762E2,1.6140383E1,3.1764536E2,9.758582E1,7.9493976E2,2.9816757E2,2.9247501E1,8.972269E1,3.8670208E1,2.9204739E1,2.937234E3,1.8068678E2,1.9377782E2,4.5348108E2,9.210983E2,6.3128094E1],"tree_param":{"num_deleted":"0","num_feature":"47","num_nodes":"81","size_leaf_vector":"1"}},{"base_weights":[-1.0643789E-1,-6.610591E-2,-1.26283E-1,-5.7256985E-2,-4.3805903E-1,-3.1901587E-2,-1.3873485E-1,-1.0708711E-1,-1.3035129E-2,-1.4718437E-1,-5.531503E-1,-5.9717923E-2,4.1455844E-1,-6.510859E-2,-1.519481E-1,-1.2348557E-1,1.6650437E-1,-7.2102875E-2,5.9280075E-2,-4.834708E-1,8.697065E-2,-1.4357488E-2,-6.2414903E-2,-1.2413342E-1,9.930781E-2,8.8184655E-1,-1.2025879E-1,-2.6303115E-1,-1.1565648E-2,-2.7059764E-1,-1.383853E-1,-1.3720956E-2,-1.7498143E-1,-4.1667163E-1,3.790184E-1,-8.2479276E-2,8.506564E-2,2.2039106E-1,-4.916395E-2,-6.256844E-2,-4.878189E-3,3.043891E-1,-1.5362619E-1,-1.4798391E-1,2.0140536E-1,-4.056445E-3,1.11391425E-1,3.3861455E-2,-3.574505E-1,8.744797E-3,-3.4684703E-1,-1.7631905E-1,4.995526E-2,-3.2123277E-1,-3.37752E-2,1.0668199E-2,-1.4923255E-1,-6.132085E-3,3.552307E-2,1.4851245E-2,-1.9590626E-2,-5.871237E-2,1.6706888E-2,5.2148577E-2,-1.860897E-2,-9.665644E-3,4.3735113E-2,3.394794E-2,-2.6083086E-3,1.2392334E-2,-1.8875634E-2,-4.347249E-2,5.669449E-2,-8.401222E-4,-2.5240516E-2,1.460619E-2,-4.208963E-2,3.7115123E-2,-9.956174E-3,1.5614867E-2,-6.1599273E-2,-5.6909572E-2,1.3313979E-2,-4.1178755E-2,8.695426E-3,-2.274293E-2,3.15287E-2,5.302853E-2,2.2191738E-3,-3.5542004E-2,1.2974533E-2,9.857258E-2,-1.1671982E-2,-5.992735E-3,3.0692315E-2,-1.5796041E-2,-8.071838E-4],"categories":[],"categories_nodes":[],"categories_segments":[],"categories_sizes":[],"default_left":[0,0,0,0,0,0,0,0,0,0,0,0,0,0,0,0,0,0,0,0,0,0,0,0,0,0,0,0,0,0,0,0,0,0,0,0,0,0,0,0,0,0,0,0,0,0,0,0,0,0,0,0,0,0,0,0,0,0,0,0,0,0,0,0,0,0,0,0,0,0,0,0,0,0,0,0,0,0,0,0,0,0,0,0,0,0,0,0,0,0,0,0,0,0,0,0,0],"id":14,"left_children":[1,3,5,7,9,11,13,15,17,19,21,23,25,27,29,31,33,35,37,39,-1,-1,-1,41,43,45,47,49,51,53,55,57,59,61,63,65,-1,67,69,-1,-1,71,73,75,77,-1,-1,-1,79,81,83,85,87,89,91,93,95,-1,-1,-1,-1,-1,-1,-1,-1,-1,-1,-1,-1,-1,-1,-1,-1,-1,-1,-1,-1,-1,-1,-1,-1,-1,-1,-1,-1,-1,-1,-1,-1,-1,-1,-1,-1,-1,-1,-1,-1],"loss_changes":[5.0779114E0,6.8614388E0,4.99955E0,4.5254793E0,1.474081E0,6.2012153E0,3.6391373E0,4.35592E0,4.6764483E0,5.639461E0,8.275995E-1,4.849329E0,7.4926605E0,6.0844083E0,5.0666428E0,5.1421995E0,6.9430714E0,5.767909E0,8.613632E0,6.605706E-1,0E0,0E0,0E0,4.2880664E0,3.4730375E0,3.5414085E0,1.6924684E0,2.8254194E0,4.6393485E0,3.8649979E0,4.6589775E0,5.145365E0,4.2379665E0,1.6307092E0,3.4151917E0,4.410913E0,0E0,5.8593006E0,7.1372313E0,0E0,0E0,4.490836E0,4.504593E0,3.3053408E0,5.024002E0,0E0,0E0,0E0,1.4881973E0,2.156177E0,2.712696E0,3.1920073E0,4.361341E0,4.2045555E0,5.010605E0,4.1242633E0,3.281353E0,0E0,0E0,0E0,0E0,0E0,0E0,0E0,0E0,0E0,0E0,0E0,0E0,0E0,0E0,0E0,0E0,0E0,0E0,0E0,0E0,0E0,0E0,0E0,0E0,0E0,0E0,0E0,0E0,0E0,0E0,0E0,0E0,0E0,0E0,0E0,0E0,0E0,0E0,0E0,0E0],"parents":[2147483647,0,0,1,1,2,2,3,3,4,4,5,5,6,6,7,7,8,8,9,9,10,10,11,11,12,12,13,13,14,14,15,15,16,16,17,17,18,18,19,19,23,23,24,24,25,25,26,26,27,27,28,28,29,29,30,30,31,31,32,32,33,33,34,34,35,35,37,37,38,38,41,41,42,42,43,43,44,44,48,48,49,49,50,50,51,51,52,52,53,53,54,54,55,55,56,56],"right_children":[2,4,6,8,10,12,14,16,18,20,22,24,26,28,30,32,34,36,38,40,-1,-1,-1,42,44,46,48,50,52,54,56,58,60,62,64,66,-1,68,70,-1,-1,72,74,76,78,-1,-1,-1,80,82,84,86,88,90,92,94,96,-1,-1,-1,-1,-1,-1,-1,-1,-1,-1,-1,-1,-1,-1,-1,-1,-1,-1,-1,-1,-1,-1,-1,-1,-1,-1,-1,-1,-1,-1,-1,-1,-1,-1,-1,-1,-1,-1,-1,-1],"split_conditions":[-1.2996489E-1,2.6297452E0,-1.2878284E0,-1.620048E0,-1.9953454E0,-2.5448158E-1,-1.4473956E0,1.7388247E0,-2.924167E-1,-1.4064655E0,-1.4699874E0,6.2429234E-2,-3.1227705E-1,-1.1692286E0,-1.511513E0,-3.7283784E-1,-8.240437E-1,4.2427993E0,4.9934593E-1,-1.4049526E0,8.697065E-2,-1.4357488E-2,-6.2414903E-2,-1.5682608E0,-7.926657E-1,-1.3798157E0,1.9097382E-2,-1.7516162E0,-1.6649331E0,1.2853112E0,-8.4849226E-1,-6.417687E-1,-2.4689796E0,-1.4024119E0,7.931932E-1,2.5386138E0,8.506564E-2,7.3664945E-1,-3.803866E-1,-6.256844E-2,-4.878189E-3,-1.2545104E0,-1.3817663E0,4.1133454E-1,1.4331875E0,-4.056445E-3,1.11391425E-1,3.3861455E-2,-1.6129488E0,-5.6355983E-1,-4.1481057E-1,1.8318864E0,-2.0368443E0,1.2338895E0,-7.978172E-1,2.2083778E0,2.6583974E0,-6.132085E-3,3.552307E-2,1.4851245E-2,-1.9590626E-2,-5.871237E-2,1.6706888E-2,5.2148577E-2,-1.860897E-2,-9.665644E-3,4.3735113E-2,3.394794E-2,-2.6083086E-3,1.2392334E-2,-1.8875634E-2,-4.347249E-2,5.669449E-2,-8.401222E-4,-2.5240516E-2,1.460619E-2,-4.208963E-2,3.7115123E-2,-9.956174E-3,1.5614867E-2,-6.1599273E-2,-5.6909572E-2,1.3313979E-2,-4.1178755E-2,8.695426E-3,-2.274293E-2,3.15287E-2,5.302853E-2,2.2191738E-3,-3.5542004E-2,1.2974533E-2,9.857258E-2,-1.1671982E-2,-5.992735E-3,3.0692315E-2,-1.5796041E-2,-8.071838E-4],"split_indices":[34,5,17,16,8,1,11,31,28,19,20,20,4,15,28,4,22,39,5,33,0,0,0,5,38,39,37,12,12,41,32,34,12,10,40,20,0,40,15,0,0,1,1,29,24,0,0,0,21,18,20,15,24,24,1,16,14,0,0,0,0,0,0,0,0,0,0,0,0,0,0,0,0,0,0,0,0,0,0,0,0,0,0,0,0,0,0,0,0,0,0,0,0,0,0,0,0],"split_type":[0,0,0,0,0,0,0,0,0,0,0,0,0,0,0,0,0,0,0,0,0,0,0,0,0,0,0,0,0,0,0,0,0,0,0,0,0,0,0,0,0,0,0,0,0,0,0,0,0,0,0,0,0,0,0,0,0,0,0,0,0,0,0,0,0,0,0,0,0,0,0,0,0,0,0,0,0,0,0,0,0,0,0,0,0,0,0,0,0,0,0,0,0,0,0,0,0],"sum_hessian":[6.3777485E3,2.1063342E3,4.271414E3,2.0587778E3,4.7556442E1,4.9920135E2,3.7722126E3,9.662753E2,1.0925026E3,1.437462E1,3.318182E1,4.7094943E2,2.8251907E1,5.760223E2,3.1961904E3,9.124965E2,5.3778854E1,6.02093E2,4.9040955E2,1.1270393E1,3.104227E0,5.55677E0,2.7625051E1,3.357839E2,1.3516553E2,1.4831353E1,1.3420555E1,1.2141799E2,4.5460425E2,3.2517554E2,2.871015E3,2.9241513E2,6.2008136E2,1.3981075E1,3.979778E1,5.964054E2,5.687571E0,1.9725114E2,2.931584E2,7.987692E0,3.2827015E0,2.0803452E1,3.1498047E2,3.9080143E1,9.608538E1,3.0605867E0,1.1770766E1,4.283826E0,9.136728E0,2.8549103E1,9.286889E1,1.2353532E2,3.3106894E2,2.672549E2,5.7920612E1,1.9413799E2,2.676877E3,2.5997903E2,3.243608E1,3.7011665E1,5.830697E2,1.0949375E1,3.0317006E0,3.1987638E1,7.8101387E0,5.815514E2,1.4854026E1,1.330123E2,6.423885E1,1.3060762E2,1.6255077E2,5.1812468E0,1.5622205E1,1.2836116E2,1.8661931E2,1.8859072E1,2.0221071E1,6.149895E1,3.458643E1,3.0624232E0,6.0743055E0,4.281562E0,2.4267542E1,8.10212E1,1.184769E1,1.1257242E2,1.09629E1,1.6904598E1,3.1416434E2,2.4882584E2,1.842908E1,3.4481714E0,5.4472443E1,1.571503E2,3.6987682E1,2.5202258E3,1.5665115E2],"tree_param":{"num_deleted":"0","num_feature":"47","num_nodes":"97","size_leaf_vector":"1"}},{"base_weights":[-9.9238634E-2,-1.1108411E-1,5.3313095E-2,9.347661E-2,-1.1716236E-1,-5.0855886E-2,1.3476597E-1,-1.4049576E-1,2.3535286E-1,-1.5949845E-1,-1.02842234E-1,7.623853E-2,-2.795585E-1,6.547604E-1,1.1372499E-1,-0E0,-4.3656415E-1,3.119566E-1,-2.3703E-1,-1.629335E-1,6.343816E-2,-5.046612E-2,-1.2399432E-1,2.259755E-2,7.8618E-1,-3.6134067E-1,1.5598546E-1,-4.985987E-3,1.0122186E-1,-1.8395716E-2,2.307304E-1,-2.2841242E-1,6.164733E-1,-5.316277E-1,-1.36428205E-2,1.2916993E-1,8.2696074E-1,-4.7812414E-1,2.0957433E-2,-1.9800249E-1,-1.0116467E-1,-8.685551E-2,6.792392E-2,-1.101202E-1,-2.5182977E-1,6.6222095E-1,-3.0998936E-2,1.0742563E-1,1.54091045E-2,-5.4197115E-1,-9.541659E-2,7.289723E-2,-1.5901959E-1,-1.015131E-1,4.754159E-1,1.1552389E-1,4.466876E-1,2.7382974E-2,-3.6359113E-2,1.1321159E-1,-0E0,-6.536283E-2,-5.523667E-3,6.328627E-2,2.4243738E-4,9.6255414E-2,-4.1780816E-3,-6.318292E-2,-7.2859577E-3,-2.0816928E-2,1.2950624E-2,-2.9938451E-3,-2.478988E-2,-1.29272835E-2,4.336521E-3,3.7605952E-2,6.557863E-4,-3.0523676E-2,-1.0181888E-2,-5.9137274E-2,-2.1259561E-2,9.914011E-2,5.6884903E-3,6.420188E-2,-7.4870847E-3,-5.834238E-2,-5.179213E-3,5.3204913E-2,-2.4023352E-2,2.1307297E-2,-5.517752E-2,2.633214E-2,-2.2028884E-2,-2.91144E-4,1.12272225E-1,6.8683825E-2,3.3318878E-3,-3.9906792E-2,5.4953046E-2],"categories":[],"categories_nodes":[],"categories_segments":[],"categories_sizes":[],"default_left":[0,0,0,0,0,0,0,0,0,0,0,0,0,0,0,0,0,0,0,0,0,0,0,0,0,0,0,0,0,0,0,0,0,0,0,0,0,0,0,0,0,0,0,0,0,0,0,0,0,0,0,0,0,0,0,0,0,0,0,0,0,0,0,0,0,0,0,0,0,0,0,0,0,0,0,0,0,0,0,0,0,0,0,0,0,0,0,0,0,0,0,0,0,0,0,0,0,0,0],"id":15,"left_children":[1,3,5,7,9,11,13,15,17,19,21,23,25,27,29,31,33,35,37,39,-1,41,43,45,47,49,51,-1,-1,53,55,57,59,61,-1,63,65,67,-1,69,71,73,75,77,79,81,83,-1,-1,85,87,-1,89,91,93,95,97,-1,-1,-1,-1,-1,-1,-1,-1,-1,-1,-1,-1,-1,-1,-1,-1,-1,-1,-1,-1,-1,-1,-1,-1,-1,-1,-1,-1,-1,-1,-1,-1,-1,-1,-1,-1,-1,-1,-1,-1,-1,-1],"loss_changes":[1.1443386E1,7.3134995E0,3.8834376E0,5.669276E0,3.4147186E0,5.8619347E0,2.6568017E0,2.6332672E0,3.9229527E0,3.977192E0,4.702385E0,4.8221436E0,2.6423225E0,2.5612388E0,3.8603327E0,6.4197283E0,4.450202E-1,8.454325E0,1.7636132E0,3.053196E0,0E0,5.3078623E0,5.3219833E0,4.2419696E0,1.3352776E0,2.8209414E0,2.3191586E0,0E0,0E0,4.8144345E0,3.1771684E0,2.388528E0,3.9496017E0,7.6224613E-1,0E0,4.3526964E0,2.9311886E0,5.2639246E-1,0E0,3.0704842E0,5.4189453E0,5.217956E0,5.4268594E0,4.3693123E0,3.7347908E0,1.7451859E0,3.319935E0,0E0,0E0,6.3707066E-1,2.476206E0,0E0,1.3762617E0,4.4377556E0,5.3365965E0,4.0264144E0,4.1729794E0,0E0,0E0,0E0,0E0,0E0,0E0,0E0,0E0,0E0,0E0,0E0,0E0,0E0,0E0,0E0,0E0,0E0,0E0,0E0,0E0,0E0,0E0,0E0,0E0,0E0,0E0,0E0,0E0,0E0,0E0,0E0,0E0,0E0,0E0,0E0,0E0,0E0,0E0,0E0,0E0,0E0,0E0],"parents":[2147483647,0,0,1,1,2,2,3,3,4,4,5,5,6,6,7,7,8,8,9,9,10,10,11,11,12,12,13,13,14,14,15,15,16,16,17,17,18,18,19,19,21,21,22,22,23,23,24,24,25,25,26,26,29,29,30,30,31,31,32,32,33,33,35,35,36,36,37,37,39,39,40,40,41,41,42,42,43,43,44,44,45,45,46,46,49,49,50,50,52,52,53,53,54,54,55,55,56,56],"right_children":[2,4,6,8,10,12,14,16,18,20,22,24,26,28,30,32,34,36,38,40,-1,42,44,46,48,50,52,-1,-1,54,56,58,60,62,-1,64,66,68,-1,70,72,74,76,78,80,82,84,-1,-1,86,88,-1,90,92,94,96,98,-1,-1,-1,-1,-1,-1,-1,-1,-1,-1,-1,-1,-1,-1,-1,-1,-1,-1,-1,-1,-1,-1,-1,-1,-1,-1,-1,-1,-1,-1,-1,-1,-1,-1,-1,-1,-1,-1,-1,-1,-1,-1],"split_conditions":[1.5641216E0,-2.4144015E0,-1.8660758E-2,-1.8631103E0,-8.372486E-1,1.4643756E0,-1.6131666E0,-9.047138E-1,1.8699099E-1,3.3864558E0,-3.5027286E-1,1.6478522E0,1.7388247E0,2.4097234E-1,4.5347995E-1,-1.4473956E0,2.1399019E0,-2.8719306E-1,-1.2919105E0,2.0038467E-2,6.343816E-2,1.1642923E0,1.2755783E0,-9.483238E-1,-5.3909636E-1,2.1387346E0,1.622095E0,-4.985987E-3,1.0122186E-1,2.1779816E0,4.1918087E-1,-1.0817099E0,-2.792004E0,8.9529747E-1,-1.36428205E-2,-9.811391E-1,-5.9334E-1,-5.9334E-1,2.0957433E-2,1.5555793E0,-4.41064E-1,1.5683964E-1,6.381937E-1,-2.620671E-1,-2.141272E0,6.4219356E-1,-1.9717313E0,1.0742563E-1,1.54091045E-2,1.1278722E0,-1.8468702E0,7.289723E-2,2.690198E-1,-4.842443E-1,-1.2980471E0,-1.9272463E0,1.621957E0,2.7382974E-2,-3.6359113E-2,1.1321159E-1,-0E0,-6.536283E-2,-5.523667E-3,6.328627E-2,2.4243738E-4,9.6255414E-2,-4.1780816E-3,-6.318292E-2,-7.2859577E-3,-2.0816928E-2,1.2950624E-2,-2.9938451E-3,-2.478988E-2,-1.29272835E-2,4.336521E-3,3.7605952E-2,6.557863E-4,-3.0523676E-2,-1.0181888E-2,-5.9137274E-2,-2.1259561E-2,9.914011E-2,5.6884903E-3,6.420188E-2,-7.4870847E-3,-5.834238E-2,-5.179213E-3,5.3204913E-2,-2.4023352E-2,2.1307297E-2,-5.517752E-2,2.633214E-2,-2.2028884E-2,-2.91144E-4,1.12272225E-1,6.8683825E-2,3.3318878E-3,-3.9906792E-2,5.4953046E-2],"split_indices":[22,13,5,3,18,3,28,11,22,28,22,20,31,4,35,11,24,22,24,15,0,16,30,39,28,2,4,0,0,4,40,39,9,34,0,4,3,3,0,24,3,4,14,22,40,30,28,0,0,30,35,0,15,30,10,10,22,0,0,0,0,0,0,0,0,0,0,0,0,0,0,0,0,0,0,0,0,0,0,0,0,0,0,0,0,0,0,0,0,0,0,0,0,0,0,0,0,0,0],"split_type":[0,0,0,0,0,0,0,0,0,0,0,0,0,0,0,0,0,0,0,0,0,0,0,0,0,0,0,0,0,0,0,0,0,0,0,0,0,0,0,0,0,0,0,0,0,0,0,0,0,0,0,0,0,0,0,0,0,0,0,0,0,0,0,0,0,0,0,0,0,0,0,0,0,0,0,0,0,0,0,0,0,0,0,0,0,0,0,0,0,0,0,0,0,0,0,0,0,0,0],"sum_hessian":[6.3251685E3,5.870275E3,4.548933E2,1.6850453E2,5.7017705E3,1.9923822E2,2.556551E2,6.334511E1,1.05159424E2,1.4368223E3,4.264948E3,1.282157E2,7.1022514E1,8.586342E0,2.4706876E2,4.386442E1,1.9480692E1,9.0960205E1,1.4199217E1,1.4315488E3,5.2734776E0,1.229245E3,3.0357034E3,1.2029897E2,7.916731E0,6.013157E1,1.089095E1,3.0853243E0,5.5010176E0,1.1603356E2,1.310352E2,3.258238E1,1.1282043E1,1.3955898E1,5.5247936E0,6.81996E1,2.2760605E1,9.320817E0,4.8783994E0,9.106863E2,5.2086255E2,9.410933E2,2.881516E2,2.7408767E3,2.9482672E2,8.567234E0,1.11731735E2,4.8490324E0,3.0676987E0,3.4966354E1,2.5165213E1,3.509871E0,7.381079E0,1.00170074E2,1.5863491E1,8.675309E1,4.428211E1,6.535389E0,2.604699E1,5.7233787E0,5.5586653E0,1.0647252E1,3.3086457E0,1.2749666E1,5.5449936E1,1.96939E1,3.0667062E0,6.1735597E0,3.1472576E0,8.839167E2,2.6769554E1,3.5192172E2,1.6894081E2,7.104506E2,2.3064273E2,4.6733303E1,2.414183E2,1.0990171E2,2.6309749E3,2.8816788E1,2.6600992E2,5.029331E0,3.5379035E0,5.863857E0,1.0586788E2,3.1876448E1,3.089908E0,4.0880327E0,2.1077179E1,3.894424E0,3.4866555E0,2.4096323E1,7.607375E1,9.606086E0,6.257405E0,9.834301E0,7.691879E1,4.383175E0,3.9898933E1],"tree_param":{"num_deleted":"0","num_feature":"47","num_nodes":"99","size_leaf_vector":"1"}},{"base_weights":[1.8585965E-1,3.1611314E-1,1.7883465E-1,5.977447E-1,2.2895747E-1,-3.78326E-2,1.8540783E-1,2.0644964E-1,7.217601E-1,-2.578929E-1,2.8041777E-1,-1.0938057E-1,4.1320425E-1,4.6253902E-1,1.8189894E-1,8.157175E-2,-1.2341996E-1,-1.4953697E-2,8.0443925E-1,1.9593021E-1,-4.3605196E-1,3.0353937E-1,-5.259451E-2,2.1139202E-1,-2.0091337E-1,-3.2591715E-2,5.331281E-1,5.707892E-1,1.0503508E-1,1.7159125E-2,1.9046319E-1,-3.5492682E-1,4.7674995E-2,1.0885861E0,5.5642277E-1,-1.5875963E-2,5.6445815E-2,-5.9852984E-2,9.170664E-3,2.0948316E-1,5.568803E-1,4.6581906E-1,-7.858784E-2,-3.2991824E-1,5.668224E-2,8.5307115E-1,1.3186899E-1,-2.2615472E-2,6.364376E-1,-1.9404987E-1,4.9008617E-1,-2.0056309E-1,1.0282602E-1,5.948158E-2,1.9746785E-1,-5.4771554E-2,6.194691E-3,1.15322664E-1,4.902352E-2,8.784374E-2,1.6900502E-2,4.4946026E-2,1.15292175E-2,1.003263E-2,6.9525495E-2,-1.6725192E-2,6.2293578E-2,-5.181205E-2,1.7400144E-2,-4.8123937E-2,-1.4194782E-2,5.0122853E-2,-1.0076018E-2,1.1189331E-1,4.6435636E-2,-1.9617783E-2,7.6432206E-2,8.852889E-2,4.949085E-2,-5.066511E-2,2.0535707E-2,9.642162E-2,2.549406E-3,2.3532498E-3,-4.4029575E-2,1.3693871E-2,-5.2852947E-2,2.323184E-3,4.6423145E-2,2.1788409E-2,1.551374E-2],"categories":[],"categories_nodes":[],"categories_segments":[],"categories_sizes":[],"default_left":[0,0,0,0,0,0,0,0,0,0,0,0,0,0,0,0,0,0,0,0,0,0,0,0,0,0,0,0,0,0,0,0,0,0,0,0,0,0,0,0,0,0,0,0,0,0,0,0,0,0,0,0,0,0,0,0,0,0,0,0,0,0,0,0,0,0,0,0,0,0,0,0,0,0,0,0,0,0,0,0,0,0,0,0,0,0,0,0,0,0,0],"id":16,"left_children":[1,3,5,7,9,11,13,15,17,19,21,23,25,27,29,-1,31,-1,33,35,37,39,-1,41,43,-1,45,47,49,51,53,55,-1,57,59,-1,-1,-1,-1,61,63,65,67,69,71,73,75,-1,77,79,81,83,85,87,89,-1,-1,-1,-1,-1,-1,-1,-1,-1,-1,-1,-1,-1,-1,-1,-1,-1,-1,-1,-1,-1,-1,-1,-1,-1,-1,-1,-1,-1,-1,-1,-1,-1,-1,-1,-1],"loss_changes":[6.187744E0,8.370266E0,9.320694E0,3.7282238E0,6.8174105E0,6.2312226E0,6.014282E0,4.4474726E0,4.6181526E0,2.216765E0,4.6880226E0,4.951826E0,2.5337844E0,2.9001904E0,8.808594E0,0E0,2.181425E0,0E0,3.2085075E0,1.1601007E0,1.7506192E0,5.478445E0,0E0,2.8326402E0,4.394926E0,0E0,2.7678308E0,3.3037624E0,2.3846388E0,5.8123956E0,5.4218903E0,9.832529E-1,0E0,2.4028206E-1,3.786168E0,0E0,0E0,0E0,0E0,3.8580194E0,3.8657074E0,2.1624222E0,2.1382666E0,2.3611746E0,3.1886258E0,6.23003E-1,2.6165667E0,0E0,1.3769016E0,1.584367E0,1.8608737E0,4.7710114E0,4.862069E0,4.403948E0,4.8092957E0,0E0,0E0,0E0,0E0,0E0,0E0,0E0,0E0,0E0,0E0,0E0,0E0,0E0,0E0,0E0,0E0,0E0,0E0,0E0,0E0,0E0,0E0,0E0,0E0,0E0,0E0,0E0,0E0,0E0,0E0,